的 8.246483 -10.050460 14.147191 -2.346511 -4.743993 -0.349242 2.497036 12.796383 -0.094731 -1.217202 4.237113 -7.895152 -5.114315 5.898583 6.932357 6.829834 -5.317637 0.655955 0.620815 2.430286 -2.878293 1.286275 -11.243567 -4.376705 -3.181442 -14.107351 -1.147217 0.643677 0.324086 9.344586 -2.729609 -3.466376 -6.992241 5.932000 -2.092057 -7.250477 1.379992 9.891642 0.630321 -9.522785 5.226052 -5.259351 3.802799 12.082070 2.704000 -15.596539 6.327060 6.123686 -8.422109 -2.150291 10.761688 5.354501 -12.297035 -4.233229 7.460262 1.451655 -10.159936 -1.034067 -14.843805 -8.293695 1.870502 -1.568488 12.761608 9.380410
了 5.577710 -10.220682 20.954554 2.516334 -10.976594 0.580669 5.588803 7.646136 -5.954714 -3.182366 2.545153 -2.295889 -3.557257 3.282080 8.133441 8.591194 -0.633187 6.925128 -2.466187 -0.423465 -6.162954 4.718702 -13.271906 5.592036 2.753846 -8.433674 -8.313540 6.554883 -3.362537 7.426252 -7.715370 -0.223553 -3.901635 1.831577 1.418450 -11.421823 0.461266 10.596011 -2.765601 -1.096356 2.426689 -2.979438 4.923469 11.324568 6.368674 -10.943193 7.616804 6.204206 -8.347057 -6.470776 11.315698 3.547976 -9.460753 -9.640451 6.614735 4.776380 -4.673662 3.067176 -5.346129 -0.363939 -2.689321 -0.747177 8.368681 8.299751
是 5.057783 -7.946801 12.945585 -3.413346 -0.577955 -7.244811 -2.698883 -4.132095 4.129013 1.291201 4.497896 -7.664337 -3.283856 5.572017 9.040773 4.395119 -4.816037 -0.697422 3.260613 -2.456575 -13.162930 -0.965806 -5.690660 1.648426 4.509754 0.469865 -1.087234 0.024012 0.081087 9.080408 -6.747836 -5.258617 -7.201262 7.526979 -3.873756 -12.428948 1.782731 7.869960 11.707971 -2.090299 -3.228983 -4.652806 1.433558 0.780118 -2.975735 -14.949121 10.411223 4.025208 -4.867748 -9.462583 2.423144 11.935663 -9.458578 -6.864422 5.273732 -4.789471 -2.618179 1.086641 -10.646421 -7.050357 4.951125 4.264574 12.463514 3.682230
在 10.620129 -9.681044 13.320910 6.491700 6.268750 6.448237 -3.536469 9.187672 0.576117 9.504573 7.442554 1.471716 -4.444794 8.681098 4.569453 6.781480 0.008007 -0.217502 9.147898 0.430221 -4.031334 -0.004166 -20.135292 4.418871 5.742632 -9.230037 4.724180 7.681891 -2.295185 9.933137 -6.278004 -1.410825 -8.045492 4.385857 -3.503623 -12.873213 -4.306164 6.630250 1.202524 1.029089 -1.440710 7.684506 3.059327 4.954528 -1.511102 -11.758599 7.536548 3.813500 -4.990090 -1.465859 10.949900 8.949889 -6.838633 4.524268 -0.029765 12.883528 -12.521770 0.959693 -11.670913 -5.017015 -5.109659 -4.754074 2.918102 13.706441
他 1.120608 -2.619698 14.299840 0.152119 -0.031951 -3.038734 4.329554 8.981289 0.087481 -0.238406 5.656088 -6.256781 -4.998480 -2.298675 11.979565 0.723753 -4.069027 3.948318 -3.338030 2.849913 -0.985101 2.072504 -8.708888 8.592321 -8.009246 -6.280847 -3.859704 -1.053734 -2.606032 3.952350 -2.678382 -4.755907 -5.291992 -0.223435 -5.839010 -4.175414 1.327539 7.758908 0.071705 -2.075701 1.775811 1.930068 1.184608 13.455038 3.294160 -9.467415 7.688506 11.915709 -10.401286 -4.180654 5.702209 -2.875975 -13.230000 -7.556397 5.222575 6.101088 -5.979230 -0.871575 -11.502460 -5.112479 2.340398 -0.002022 14.279918 6.142102
我 -0.799546 -2.765786 9.193157 -3.114498 1.168029 -7.131946 10.188551 9.172468 -4.257748 3.507374 3.067618 -6.001598 1.762919 1.456632 10.331330 -0.969175 -2.762146 1.714291 -3.411805 4.280111 1.058532 1.533044 -7.937403 10.923414 -6.328352 0.893474 -5.597825 -4.029375 -2.844853 0.148800 -1.863626 -1.208701 -2.825144 -0.723688 -1.196192 -7.514729 0.391844 5.306657 1.341178 -1.744297 0.947753 -5.603482 0.528135 6.810106 5.639796 -2.234023 11.499189 6.326121 -10.586337 -5.178607 4.823446 -4.690509 -13.809916 -10.218051 0.707499 2.578211 -7.663650 -3.354677 -8.651828 -6.574367 -0.058055 11.423065 12.619921 8.422933
你 -1.167905 0.539771 8.307179 -5.072290 1.761895 -9.088195 11.041544 8.648467 -5.976166 6.237694 2.870940 -5.705087 1.973897 2.351960 9.735005 -2.464292 -2.416110 0.335245 -3.585140 4.858911 1.311835 1.176170 -6.884873 10.597168 -4.337261 1.873169 -8.175982 -3.374274 -3.067973 -0.706339 0.283441 0.478947 -3.522724 -3.442170 -0.999627 -8.257309 0.834377 4.081455 3.765007 -1.744130 -0.025148 -5.321914 -0.704928 4.880373 5.508572 -1.463798 13.527162 3.873643 -11.313428 -7.511918 5.209030 -5.121521 -14.428274 -9.979231 1.542225 1.833666 -8.455366 -5.072800 -6.359897 -6.604774 1.025735 13.712952 8.642766 8.444694
就 2.440127 -2.506054 19.445057 -0.275143 -6.926905 5.620132 1.411793 9.859353 -7.500591 7.363337 -7.896690 -3.780930 -5.108762 0.639318 19.685234 0.735790 -4.346154 1.478983 0.311234 -8.674462 -2.610051 -1.650429 -6.227049 4.624183 3.069004 -4.582780 -1.506491 -10.656157 2.350625 1.688842 -5.940191 -4.617730 -4.286746 4.298196 -1.847189 -8.933168 0.297201 2.532857 -4.736883 3.408759 7.440176 4.818991 0.814045 7.354730 5.717166 -11.499355 9.217076 0.653341 -4.025444 1.562709 1.666391 3.558619 -3.403142 -9.902751 2.336802 -1.933262 -7.142804 -2.008575 4.308496 -11.555806 0.168932 -2.737592 3.716228 2.682004
也 -1.773450 -3.977892 12.402293 -1.181856 -2.951157 1.296402 2.787189 11.395257 -3.989322 8.484213 -2.633942 -1.403995 -4.585840 2.992941 13.070959 0.324048 -0.656469 0.695217 -3.074941 0.527825 -5.280886 0.088191 1.135651 -1.701395 0.003557 -6.520382 3.029206 -5.204987 -7.007751 3.921656 -12.602921 -7.934901 -6.293890 2.367842 -3.145187 -9.997160 -1.630511 5.276518 -0.349983 -4.437533 5.729233 1.806185 -3.276334 6.185529 3.931562 -12.490011 8.439667 0.773447 -3.472277 -3.704392 1.837989 4.041008 -7.403610 -6.605789 -5.541399 0.450852 1.211700 -6.786502 -3.431217 -7.094347 6.211831 -9.639436 8.551450 0.184835
她 2.586068 -1.366586 12.221813 0.129535 0.867219 -2.248404 5.212480 8.165692 0.359809 -2.022321 5.559374 -4.482861 -3.251696 -2.016109 11.158510 0.659075 -2.959336 3.153175 -4.036521 3.642234 -0.651120 1.387348 -8.183901 10.868351 -7.838854 -8.651144 -4.104459 -1.699230 -3.913702 4.340143 -2.863809 -4.652792 -6.248609 -1.665334 -4.260670 -3.636374 3.099443 6.940341 -1.844738 -0.519707 1.533548 3.082434 -0.383428 12.890105 0.989777 -8.251176 8.129765 8.271131 -12.167963 -4.385879 3.394947 -4.448686 -10.523383 -6.995909 8.692021 5.415972 -5.404943 -2.492000 -10.967661 -3.568420 -0.348839 -0.988949 15.456051 5.283040
和 6.182522 -6.335581 11.611288 -6.357784 0.094066 2.946720 -6.971268 4.614157 -0.597769 1.026097 -0.700888 -0.567265 -2.609235 12.198578 3.704618 8.348269 -10.607164 -9.554543 5.761747 3.664971 -5.997984 -5.561312 3.343193 -2.528917 3.786200 -6.963341 -0.745744 14.404682 -5.247324 4.347230 -3.211379 2.749174 -0.602253 2.525374 1.437770 -6.773679 -0.281634 3.716951 1.819157 -3.601184 -1.675432 2.984242 -5.766796 7.095022 -4.450731 -8.220488 5.012768 5.274400 0.247139 -5.079954 -6.009768 4.576072 2.069389 2.615513 -5.186658 1.950499 0.561388 -4.291470 -2.397803 -3.212277 5.357972 4.471210 -6.066916 3.500552
着 8.883614 -6.701224 14.091534 10.444407 12.622457 10.524508 5.869188 8.656805 3.941348 -4.297712 1.152067 1.468820 -13.051367 3.861800 -0.757550 4.868126 -8.075035 -1.848273 6.192074 2.452682 -4.731395 3.053041 0.259211 7.541978 2.994249 -24.039871 -4.208197 13.621276 -13.933557 6.953305 -6.099086 -5.993167 -1.667129 -3.360857 -0.553538 -14.438455 5.691834 6.712312 -4.103558 0.425045 -4.476679 14.208184 -1.071526 -2.196955 -0.982498 -0.912242 13.347536 8.101392 -0.410364 -1.094104 6.624489 14.105831 -11.068579 2.947500 11.829533 5.092014 -7.928998 -4.408917 -11.653804 -3.729878 -1.955954 3.345468 -9.484614 17.024014
都 1.579854 -6.546376 15.642539 0.296161 -1.404378 2.376346 6.905155 16.259937 -7.952501 9.265404 -4.602214 -1.415367 -5.704419 5.515142 10.603567 1.689640 -7.139423 6.676661 3.854837 -3.502166 -9.927989 -1.579940 -0.430677 -4.815850 -3.641829 -8.267190 4.506948 -6.331732 -3.543740 0.226865 -6.460483 -6.585414 -3.550128 7.626147 -3.449632 -2.727268 3.938422 -4.559472 -2.601943 -7.197820 5.354744 4.521198 -0.818726 -0.653625 3.456122 -14.202200 6.287735 -4.131723 0.379081 -5.322717 -0.681147 4.398191 -9.593774 -8.296229 -0.395313 2.471608 -0.844858 -8.643699 1.140907 -6.243714 3.642977 -6.536335 11.847484 1.782338
这 1.046855 -9.055618 11.729438 -15.814890 2.270328 -0.806366 9.213306 4.218609 -9.536366 -1.804870 6.235881 -8.516400 -7.470934 4.569070 5.209833 3.831742 -3.202411 5.418076 2.300974 2.943616 -8.231457 7.473594 1.650745 -6.464607 2.150410 -3.129388 -4.580526 8.238487 -2.570292 7.235782 -0.817844 -2.684369 -0.528158 -1.600911 -5.391656 -1.969745 0.246506 7.242750 -3.453706 -3.042634 5.125159 -9.768394 1.435630 7.347852 -8.082305 -1.821199 0.765202 4.177526 -11.378392 -2.599375 17.917116 -0.811964 -7.836807 -8.694660 2.492593 8.681673 -3.232572 -6.332127 0.419604 -5.892371 7.349697 -0.745520 11.432133 4.758649
有 -1.050792 -8.866452 10.482067 -13.226239 1.299019 6.829669 -4.966910 -1.542030 -1.378597 4.512825 -2.231723 -3.420364 -4.536350 8.699526 7.860733 -7.877194 -2.695048 -1.066895 4.944257 3.079267 -5.703967 0.920654 -6.648213 2.254618 0.298138 2.446572 5.364813 6.184150 -3.419932 13.542086 1.382978 -2.686522 -2.360469 5.964447 2.305822 -7.090262 -2.146303 6.060824 6.842405 -0.654178 -3.120374 -7.091131 4.208682 -0.528335 -2.358179 -11.229992 -2.343763 2.674326 -13.001223 -8.607533 6.503407 8.919264 -6.748082 -7.926099 3.495769 2.323118 -10.182249 9.958602 -6.669664 0.582561 9.707684 1.240850 10.547182 5.405581
自己 1.272007 1.943995 17.793779 -1.494300 2.556573 -4.215805 6.730328 6.766224 -3.032749 -3.670079 6.682444 -7.445783 -4.596866 -0.324537 8.360445 1.782327 -4.936054 1.439227 -2.845628 1.510538 0.380421 -1.356343 -6.108983 6.743920 -6.663986 -6.185245 -1.614070 1.844125 -0.397975 2.311567 -3.011934 -3.530226 -5.071263 -3.469354 -5.015035 -4.298094 1.482651 10.469405 0.335141 -3.843189 -0.724627 4.557957 -0.090057 14.820596 1.304838 -12.205813 7.619083 11.643418 -10.422700 -4.475968 1.247915 -0.615682 -9.556360 -4.969591 6.596632 6.478169 -3.738712 -2.345130 -6.666805 -6.500517 0.647093 -1.023818 10.468326 5.591082
人 -0.174584 -1.046136 14.362132 -3.312023 3.242772 1.262345 -1.865123 12.040223 0.226889 8.588248 0.369763 2.166173 -3.653899 -1.580031 11.528145 2.271669 -4.159456 4.340676 4.300492 2.978555 -2.578061 5.739668 -13.367846 6.944476 -11.638038 0.550959 -1.000916 5.158328 -10.342568 -0.631892 -2.663935 1.155941 -5.627311 0.254028 -1.168275 5.415399 2.453181 -3.318214 0.823280 6.933747 3.344053 5.304059 -7.241844 3.052641 3.703502 -15.433706 12.240269 14.364614 -5.639333 0.073080 3.642684 5.885520 -2.066398 -4.134467 1.395021 2.349085 5.534316 -1.033270 -10.548939 -2.562360 4.480956 -2.661075 10.357830 7.218333
没有 8.268266 -8.496563 21.520203 0.511914 -3.138688 5.042179 -7.959616 10.223900 1.400876 -6.889399 -3.004955 -9.725153 -9.170634 2.873273 5.306033 -5.332646 -14.004541 4.886323 0.935159 -0.688318 -17.394339 -3.884983 -4.535849 14.310532 2.948938 6.130812 -3.450824 8.184070 2.344558 16.499199 1.535319 6.880338 -1.264620 8.756673 2.496753 -8.014671 -5.687582 3.421208 1.849057 -0.462060 -15.262630 5.159182 1.928392 12.459265 5.309642 -11.003190 -6.846683 -0.037234 -9.555183 -3.834245 10.268324 4.640806 -3.798031 -9.979247 2.988310 1.334547 -17.026110 14.646728 0.426457 9.771627 -2.568207 5.725631 7.430294 -8.354155
说 7.407200 -8.572588 -6.476834 2.216152 -4.466303 -12.560612 6.407813 4.547423 -5.335008 5.272458 0.558506 -3.142625 2.271924 6.888480 10.621979 -1.577258 -1.589609 -2.592074 1.184041 10.384626 -1.968479 0.144295 -1.843310 0.513756 -2.908267 2.326694 -4.436729 -6.201775 -0.248998 0.631404 -0.997760 0.166770 -0.031429 -0.802994 5.269677 -10.409990 4.985840 1.275143 -1.407046 1.701964 0.989265 -8.768268 -7.660242 3.283711 9.140700 -2.128473 7.203515 2.289338 -1.271744 -2.543361 1.660008 -7.922171 -8.167690 -9.593645 -2.716072 3.067418 -5.216508 8.614182 -0.314801 2.066089 8.001530 3.712812 9.366221 2.330491
被 16.948662 -5.611358 29.602753 -1.872430 -4.495243 -3.146099 3.168565 -8.986110 -0.136112 -10.825812 2.756932 4.464654 -1.154662 -1.712363 11.142287 13.528190 -8.694095 8.339952 9.276869 8.375893 2.023371 -3.396245 -10.101015 1.219099 1.481626 -10.453065 -8.403565 8.303128 -4.989540 -2.814223 -9.263652 -2.353654 -7.542440 -0.533771 4.322401 -5.933121 1.267536 4.823176 4.743289 0.709793 -0.492699 3.228674 8.462623 11.598819 -1.696627 -14.613248 -10.123960 5.757321 -5.334936 -9.395717 2.363721 4.508845 3.587867 1.121824 -1.966616 7.780838 4.771065 4.925247 0.092168 2.851186 -2.174822 -1.467908 -5.459126 2.604835
那 3.871628 -5.648989 6.378893 -11.271794 1.153758 1.772028 6.611437 5.501776 -10.905357 -0.503431 6.820820 -8.543676 -8.367904 3.516651 5.294512 1.505764 -5.450790 6.536779 3.935434 8.155967 -4.510232 8.033771 -3.249831 -2.880923 0.572263 -11.544668 -6.860193 4.218102 -1.864601 6.278334 1.384444 -3.783503 0.056575 -0.656265 -4.267308 -5.960138 1.103274 4.531189 -1.891878 -3.953291 4.097447 -7.748814 2.826947 7.245208 -3.610123 0.111158 1.927564 7.003362 -9.121397 1.021429 16.127872 3.429983 -6.733066 -4.164241 5.016152 6.885127 -5.449492 -6.117286 -3.659317 -3.534494 5.608748 -0.905379 5.719515 1.796080
还 0.371631 4.001830 13.623687 2.310817 3.592125 -0.450622 0.355094 9.230270 -4.233284 7.236605 -0.166448 2.114373 -3.244221 6.664013 15.401303 -2.109960 0.119239 -7.813471 7.796215 -2.353586 -7.054812 -7.013448 -1.652740 -3.862900 2.126203 -8.019864 -2.975809 -2.292905 -4.892743 -5.769563 -9.555319 -12.765438 -1.875811 0.625312 -5.004536 -12.051630 -3.932432 2.452353 -3.162508 1.406407 2.662071 7.112530 -0.190111 -2.400010 5.165917 -9.120626 8.920172 -2.493853 -7.148198 1.544078 4.773857 -0.353176 -9.269619 -6.791008 -5.062079 -0.821937 -2.920255 -12.587007 -0.606357 -14.584610 2.146328 -9.215578 0.808826 -1.703700
上 7.896432 -8.949977 14.112938 -0.147511 2.892597 6.142000 2.142159 11.442201 -9.919250 -10.758087 -5.750196 -8.906058 -7.472713 -2.823262 9.782809 0.854939 -9.470607 -7.274362 9.186263 -4.575047 3.333466 -3.534945 1.365617 -0.155553 -3.509563 -4.945261 3.477738 1.896653 -1.139437 -9.367730 -4.667850 6.677421 13.170180 -10.571923 7.322842 2.018655 8.874788 4.187137 -1.189187 -1.770965 -8.051082 10.177045 0.650335 8.714486 -9.011737 3.711350 -0.441985 9.751143 5.735055 -0.267494 7.126334 10.564619 -0.566044 -7.786607 11.883239 8.352902 -4.263074 -8.290814 -7.687907 -5.473185 6.571929 -6.961596 -1.214783 8.548093
让 4.097426 0.422242 20.290806 -3.744648 -5.120158 -4.209579 5.478323 9.077215 -0.295795 -2.950997 -2.201101 1.901908 -5.690289 8.221202 0.715483 8.049880 -0.543850 1.003279 -1.188136 3.423902 -0.556729 -3.802389 2.016568 0.853076 0.790689 -5.331687 -2.772107 7.261284 -2.997101 0.729742 -1.349765 -5.146276 -7.928720 0.372978 5.067191 -11.208634 5.512064 1.393745 3.888792 4.673517 -0.042036 -5.613135 -1.046057 10.260227 3.811810 -13.095738 -0.808089 -0.214184 0.538909 -3.263672 0.015060 4.812316 -1.545489 2.031873 2.659167 -4.597560 4.680377 6.780515 -0.966379 -0.863454 2.980251 0.122583 1.660569 4.694224
又 -0.421405 4.299701 4.486072 -4.782866 -6.292526 7.465952 6.047114 5.682526 -3.035876 6.904628 1.244985 0.690923 -6.168511 2.623858 10.718843 0.819663 -2.873279 1.387661 0.891467 -3.891319 -8.115767 6.468863 -1.845959 3.396368 2.797353 -7.498384 -2.163208 -0.048608 -6.153603 -2.398659 -8.928068 -9.034851 -4.340499 -2.235409 1.995666 -10.799437 6.895302 4.890694 -0.091265 1.276522 8.800345 8.304317 -1.300099 5.805408 1.503172 -7.814081 2.344241 -1.172890 -5.709462 -2.117209 5.257081 0.474777 -2.467231 -6.581207 7.477463 4.731276 -0.421892 -1.355985 4.121706 -7.092825 1.286290 -8.020071 0.966311 -2.273526
他们 -4.651091 -4.233009 15.249556 -6.753852 4.264667 -3.443477 3.145057 5.739502 -3.305660 0.942771 3.104058 -5.949310 -6.016161 -0.900190 7.761182 3.833376 -5.228924 1.687346 2.180308 2.636166 -3.367785 1.634267 -6.979312 3.119352 -9.764151 -2.506150 -1.295433 6.541381 -3.646555 7.214729 -3.419728 2.119239 -3.545179 2.726859 -4.450138 -4.617772 2.049591 2.732087 -2.427156 -1.375907 2.450022 4.788362 1.522169 11.517282 -0.662686 -9.835822 10.194376 8.808503 -5.031971 -1.953115 2.170952 -0.463052 -4.633404 -5.766296 -7.072604 5.147340 -2.538754 -0.262832 -5.307573 -3.070981 5.662600 1.293735 5.468823 5.516843
要 2.731904 0.258965 12.949473 -1.795219 -2.041937 -2.152478 7.798190 5.394127 -4.727221 0.338662 2.472506 -4.598184 -1.392067 1.500722 -2.145819 6.892255 -7.253253 1.999265 2.632896 1.751185 -6.835279 0.702989 -2.647152 6.653534 7.016908 6.148413 -6.352323 9.027004 -6.594648 1.124626 2.226048 -6.594494 -2.700493 5.709557 -0.290517 -11.240412 2.202347 3.935530 0.222726 1.873117 -8.057507 -6.313444 6.572652 7.258545 -3.077859 -10.131781 21.564650 1.702532 -7.111489 1.961109 -0.389475 3.666661 -4.911624 -8.691007 7.655178 5.186528 -4.521824 3.821614 0.604198 -0.615264 4.937392 0.699974 -2.720020 -1.999660
不 12.774107 0.396733 11.970812 -6.346827 -4.541347 -4.166924 -1.345330 13.775942 6.515022 -5.691808 -5.388079 -6.162486 -8.689466 1.082249 4.793131 -2.805743 -13.713620 5.938806 1.025593 -1.547036 -11.692576 -3.488057 2.367788 9.725140 0.518973 11.094501 -1.201615 5.860143 -0.706434 15.603266 1.793398 11.748678 -1.345316 0.988822 -3.176037 -1.269791 -0.640293 9.328002 0.258321 6.243646 -12.303788 4.368365 -9.348832 5.452353 7.511174 -8.458798 15.930220 0.744570 -3.537195 -0.918140 7.822303 0.621643 0.873796 -8.743849 5.621807 1.204661 -6.852840 0.134327 -7.683641 2.817097 -6.173589 11.784084 -0.221073 -3.748644
对 4.657487 -3.491289 7.958932 -1.223823 3.374156 -0.346506 -6.153766 3.596048 8.414260 4.967587 2.333937 -1.600132 4.369226 10.166789 4.909559 2.417735 -2.604262 -4.984178 3.442693 1.382579 -8.155087 -4.192255 1.946264 -0.175907 7.889291 3.740773 5.572302 7.543361 -6.513528 6.370040 -2.560061 0.354655 -7.896687 2.076797 -0.574294 -8.224907 -1.848579 5.729070 5.406461 -6.889712 -4.047100 -5.492836 -8.354281 8.668865 5.856331 -7.130156 5.086534 1.453437 3.374097 -3.509854 -3.313334 0.735068 -3.018069 1.209761 5.040517 -1.216390 3.714249 3.284959 1.692536 2.940963 6.921091 1.653794 -3.970104 4.556906
这个 1.657330 -7.209243 5.809023 -14.249848 5.284974 -6.203620 5.712986 1.281862 -4.755961 -2.755962 9.473313 -14.345485 -6.832047 9.792854 3.958264 5.319904 -3.743639 1.386073 -3.050079 7.226140 -0.213692 -1.998873 5.536087 -6.071366 1.447399 -3.985919 -2.044756 1.433185 9.169937 10.847855 0.341241 -4.944513 -5.503150 -6.777732 -0.062509 -3.413809 -5.414530 11.742984 0.358726 -7.071299 4.261357 -2.507471 6.619008 13.441104 -3.539373 -7.582349 1.558818 5.157116 -5.602973 -1.578964 17.611681 -2.162781 -2.489269 -3.656034 2.940559 2.485603 -11.040714 -8.271716 3.434232 -4.024123 3.649379 -1.803174 1.580697 1.809870
将 11.053159 -9.413614 24.838261 4.076494 -9.778069 -3.456659 9.144034 -4.922885 -1.113726 -10.270912 -0.382546 10.757926 -5.678393 3.716831 2.551040 5.873465 -8.713784 0.886814 4.346025 5.264414 4.251425 -5.876610 -6.314874 2.963253 7.403640 -10.586456 -2.990499 8.160817 -4.106022 -4.462170 -5.849756 2.734760 -1.255441 -6.387238 1.869786 -8.406365 5.551256 0.579379 2.289271 -1.820044 -4.775433 6.237360 1.161318 14.882724 3.036558 -6.818795 -6.325670 4.197079 -1.290184 1.004409 -8.317940 7.648010 4.442929 5.190957 2.087059 -0.858268 6.284572 5.702594 4.802548 -6.131064 -0.755468 -5.128379 -14.493588 9.757893
什么 2.236890 -4.481038 6.445881 -3.902909 5.372267 -8.062066 5.010667 3.505014 -0.632098 1.634774 2.580204 -17.965265 -2.343658 0.357394 7.835857 0.295411 -6.620776 4.629092 -0.460395 3.608143 5.414391 -7.920435 3.647983 1.517470 -5.130782 2.703817 -3.314305 1.682260 -1.067267 2.922008 9.137641 -1.126095 -3.253636 -1.593475 11.225971 -13.570960 -4.325183 18.320662 2.905265 -13.727872 0.209048 12.179585 -3.650600 -3.440423 3.170316 -4.485277 6.752860 -2.454972 -4.657734 -7.304179 4.602587 -6.420505 2.900488 -1.794324 -1.610164 -1.324564 -8.829033 -9.184505 -4.111253 -10.934177 6.639805 2.304345 8.736417 0.724950
去 1.774030 -6.741373 2.358492 6.600077 2.180887 6.977521 11.877747 2.688942 -7.258097 10.565599 9.470077 -1.906982 2.143853 3.582078 2.102637 5.409227 -3.580763 1.619515 7.011867 -2.737933 10.415857 -4.397706 -9.389339 11.156651 -1.271009 -2.552081 3.710711 2.455865 -9.755090 1.845126 -4.449942 -8.562715 -4.744558 3.184179 11.472303 -11.668432 7.361906 1.904610 5.063835 4.471981 -9.669480 1.971947 1.180235 6.253025 -3.208514 -1.129495 14.224854 2.138512 -5.611940 4.821387 6.367021 7.409520 1.750839 -3.524477 -6.725996 15.063957 -9.551348 2.454121 -4.072821 -9.689838 0.717209 5.518527 -7.170173 2.892317
道 4.906966 -6.729156 -8.690895 2.483121 -2.875389 -5.883028 9.700840 -6.431637 7.261001 -3.621629 -2.172844 5.076025 -0.990475 -4.411642 8.899691 4.307634 -7.400350 -4.278746 -5.292976 19.791643 -8.980292 4.020575 6.087585 7.853771 2.861842 -0.968216 -5.588589 1.810017 -8.379970 -2.466959 -9.517402 -2.640758 -1.257371 -1.754563 4.049073 -24.337095 4.899694 1.469725 4.212249 -0.967621 -2.312232 -2.750285 -6.846719 -0.044005 11.280943 1.990879 3.977324 -6.484145 -1.083693 -8.591405 2.159054 -6.370521 -14.950764 -5.121211 5.126455 -5.768397 3.964424 -0.851727 2.889313 -0.571009 4.286138 2.277611 -19.338654 12.323465
而 10.198641 -2.324383 6.632442 -7.631394 -3.823852 2.514578 -5.147953 8.044418 1.636409 -2.175706 -1.229843 -7.184393 -3.373170 -5.708599 1.120935 10.021667 -9.680099 -1.896108 3.370233 2.458919 -4.102711 0.481189 -1.708933 -1.818403 -0.225817 -3.412877 -0.226244 7.724514 -4.284730 3.156296 -5.415520 -1.270454 -5.459481 -0.530367 1.480536 -0.184869 1.190294 1.314309 0.128607 -4.367308 0.551681 4.937803 -4.094815 13.116081 -0.655687 -13.066164 -0.442655 4.298612 -3.816964 6.340511 -5.392693 3.177612 -0.934789 6.596637 -0.458106 -0.752374 3.048266 4.938486 -5.244859 -2.942623 -3.470701 -12.064658 -4.598489 1.213386
与 4.850996 -3.976802 7.757791 -9.688038 -1.183227 1.274577 -15.742257 2.801547 1.843107 1.857981 -1.702510 1.781978 -1.887853 9.387959 4.710691 4.706677 -8.096087 -10.242558 -0.442450 4.012152 -7.702350 -4.185771 5.706674 -0.305836 7.030271 -6.797050 0.091655 15.865307 -7.940641 1.846355 -3.199225 2.462642 -1.924634 3.694325 -2.423614 -4.180169 0.955589 1.204734 3.724425 -5.722953 -3.424245 4.124403 -6.559236 8.239560 -5.999061 -2.631550 2.625289 -0.074811 3.934986 -1.901974 -7.845836 1.373786 4.660923 9.802001 -6.092521 -0.331377 7.089731 -1.451725 -2.993833 -5.910137 7.001776 2.487804 -6.483197 2.000042
已经 3.373861 -4.976394 10.042572 -3.211708 -2.986712 8.055163 -6.052598 7.546392 -6.699547 4.671667 -1.825815 2.163271 1.879190 2.427772 5.941706 7.806934 -4.681212 6.658926 5.356482 -3.958425 -12.566515 -5.013278 -2.732218 -1.253334 6.563356 -4.314261 1.166460 1.636591 3.352195 -1.279585 -4.802631 -7.617389 -3.474396 3.314957 -0.956817 -4.683332 -4.554620 3.673237 -5.662036 -3.168027 3.004640 6.646143 6.715887 10.715891 3.630334 -6.105801 4.407863 1.561918 -4.534002 0.684054 -3.277293 8.106952 -6.084762 -11.080054 -5.941528 4.339549 2.350950 -2.743042 8.327788 -4.959080 -1.638242 -14.130013 -1.856262 -2.314743
很 4.191648 2.403304 -1.178991 -12.802412 -5.226462 -3.448463 -4.364076 14.675579 10.825853 0.384883 1.845260 2.248425 -3.133944 11.833646 0.216184 1.780505 -11.936265 5.640348 8.662843 -0.799019 -9.634773 0.294271 6.057316 -4.491895 -0.809925 0.041696 4.363143 4.543934 6.873114 3.797513 0.993373 6.119077 1.008509 -3.635520 1.283126 -11.093071 2.967845 20.037336 4.022967 11.845263 -2.391656 -1.784121 -16.473148 6.099535 1.361881 -20.840956 2.140463 -0.038910 -2.259088 0.808306 4.280951 -3.521578 2.549789 -11.871279 2.488323 4.158557 -3.862583 -6.567401 -12.635842 0.374386 3.757614 -0.676003 5.448045 -2.256769
我们 -5.807157 -5.014105 7.734187 -11.013593 3.974504 -6.137796 6.181462 5.562802 -6.900870 5.827176 1.350728 -5.833267 -0.209910 2.114013 6.704111 2.735588 -3.746183 -4.109225 1.028399 2.134385 -1.863529 -0.967629 -6.191505 5.559994 -5.164915 3.143654 -2.210657 3.630968 -3.409849 3.378290 -2.047375 6.620111 -0.998137 -0.437753 -0.645119 -7.242336 1.584390 1.038275 -1.248542 -0.792022 0.503493 -0.423974 0.266591 7.420399 0.362308 -1.842328 13.376590 2.799523 -6.637566 -1.757564 0.323198 -0.927200 -4.065342 -9.002872 -11.293355 2.843951 -3.297976 -0.061239 -2.521194 -3.171955 4.908065 7.901857 -0.094663 10.922066
把 10.078191 -7.408814 23.928955 6.024016 -8.279858 -9.682727 15.143287 -7.620251 -3.848113 -8.270798 0.033166 9.773101 -0.791032 6.032763 3.039372 5.576845 -10.145321 -1.139276 8.134816 6.556684 9.071395 -8.161185 -3.139312 3.952126 4.866908 -5.737774 -5.689626 4.973250 -1.684445 -1.858389 -3.176661 3.451274 0.958041 -5.566793 5.806160 -8.342406 3.570098 2.634821 4.461939 2.570773 -3.820151 2.056193 2.723940 7.733310 5.294796 -7.518147 -2.971501 3.888029 -1.638942 -2.843750 -4.795928 4.982108 4.934281 1.181931 0.016079 0.339898 3.258977 1.560055 6.117298 -3.228509 -4.134006 3.495494 -10.049228 10.999037
给 4.696082 -5.860523 17.314167 -1.240543 -3.113239 2.817596 15.244255 -0.574051 -7.652576 -1.868867 1.978551 6.127751 -0.284347 11.922213 -3.275056 0.893150 -5.108392 -1.861152 9.550702 -2.216491 5.646905 -6.213038 -5.520899 0.024479 6.767748 -0.572098 -11.923456 6.006649 -7.966331 -2.567095 -0.332044 -3.127997 -10.361795 -2.461733 11.094681 -8.325659 2.316510 2.321391 2.368960 2.406356 2.112926 -6.798964 -3.639484 7.042978 -0.384942 -3.426709 -0.569329 5.902287 1.178270 -0.109187 0.600557 10.561917 -0.440048 -4.121461 1.099168 4.235126 0.632890 3.074657 2.983104 -3.627811 -3.643426 7.736244 -4.431626 0.843978
地 11.962468 4.428128 1.892511 1.122064 -2.876279 7.802508 5.991651 11.317615 1.582235 -12.062697 -1.689203 -1.739479 -7.319827 -2.713156 -3.304479 3.796022 -1.188865 -0.645620 0.443306 9.382387 -8.273800 -1.287872 0.231948 -2.352038 -1.757653 -10.150287 0.207018 3.032146 -5.973622 0.235152 -7.528871 -2.423238 0.293838 4.065509 -0.357324 -4.101964 5.469122 8.858006 -9.187121 4.711985 11.321508 10.232512 -3.326633 5.958527 -1.380103 -6.270396 6.453160 10.772940 -1.340272 7.159223 0.358071 -2.626379 -7.298335 -3.210241 10.961879 0.756533 2.581358 -1.038285 -3.825614 -1.846016 2.575430 -6.258512 -15.871455 7.022453
来 1.374527 -4.215404 1.801670 2.737131 2.663727 4.427202 7.036119 2.169841 -3.398389 4.199409 8.900974 -2.524452 5.392423 0.147539 4.763968 2.328831 -6.564167 5.959339 8.306664 -3.244030 5.538517 -5.493886 -7.457271 2.516479 -1.284801 1.408903 -4.550488 9.130461 -7.253952 -0.814509 -2.629331 -9.743670 -7.493459 -1.122540 7.093579 -8.855954 7.595819 3.570035 -2.207917 0.728088 -2.404616 -1.506767 -0.292029 2.084722 -1.257248 -3.021358 7.673045 1.006990 -6.046007 1.939601 10.397811 3.655246 -1.251201 -8.273378 3.994956 11.710369 -6.375847 5.294818 -0.500322 -9.022466 5.086864 1.788356 -9.438172 2.558627
会 3.518544 7.907912 15.612168 -5.342813 1.038926 0.714014 -0.436561 9.581494 -3.094220 2.318891 -5.193295 -4.981977 3.944577 -1.305478 1.413758 1.070588 0.082696 4.107510 4.525750 2.219688 -9.011037 4.272299 -3.160023 4.814225 6.789501 9.040971 -0.583569 5.197738 -2.451237 4.010459 -2.747570 -5.425074 -3.439981 3.088684 -2.927642 -7.160898 -6.473956 4.173043 1.054283 6.852765 5.653017 -5.319697 7.559326 7.651637 -5.528870 -13.173148 18.135277 -0.547430 -6.520839 -7.029573 1.437536 6.884927 2.973724 -1.177828 8.073709 -2.686184 -8.574615 6.763227 2.850871 -0.665114 8.883378 -5.789420 -7.587520 -6.760694
好 -5.246376 -3.747317 5.627107 -0.449799 0.735367 -0.516551 8.634779 8.336414 0.589913 -6.576268 -3.182959 2.855110 3.609421 2.194222 9.868828 -0.209400 0.036961 -2.515364 2.328382 0.463138 3.349576 -0.923092 4.400315 3.525113 1.027914 2.202081 -3.551300 5.463211 -3.158835 1.511034 2.017504 -0.339331 -6.140306 0.470633 4.781226 -6.748834 -1.601084 6.671559 3.465053 -0.151101 -1.573073 -6.097937 1.233983 -2.887448 -5.182704 -0.558280 5.851033 2.635749 -8.466939 -4.738376 0.306403 5.447212 -4.017460 -13.555782 0.225445 2.288578 -4.518403 -2.888612 4.048750 -0.730840 2.070667 1.594728 -1.475467 14.295316
到 9.889680 -7.321534 4.099030 -3.553678 10.238001 11.024130 -1.147633 4.008411 -1.659844 6.436186 -2.727513 1.006379 -0.802320 9.069590 -1.611973 7.001175 11.125849 -0.425793 13.277921 -6.245602 3.567769 -11.536612 -6.214308 6.790797 6.708479 -4.224087 1.950457 7.870080 -6.990626 9.727242 3.031201 -2.787593 -7.674483 4.631769 0.980478 0.831099 2.599395 6.059644 0.097003 5.895872 -1.387054 12.938539 0.328233 4.439060 7.575850 -3.047399 1.388836 1.878729 -1.492791 -0.330308 6.004076 5.653217 0.201477 3.765273 0.684601 9.935203 -7.510620 2.063723 -8.839570 -14.434286 1.329839 -1.132396 -7.967536 18.215090
为 2.447117 -0.321700 3.283438 -6.029544 2.155521 -3.717245 2.142534 5.355298 -5.524033 1.324687 3.753929 3.296586 -2.237995 11.930624 -6.821311 4.017082 -9.774240 -7.647826 1.429945 -3.068650 5.170160 3.982135 -0.946960 -1.607015 2.416790 0.700737 4.691042 11.804670 -9.094453 -1.606609 -7.541418 -2.562272 -11.344913 -1.159501 -0.541421 2.060370 4.422463 0.495589 9.679301 -7.006731 -4.542385 -5.020816 -6.973334 11.143747 -8.355017 -5.684224 -0.982579 -6.336524 1.304744 -0.607922 -2.530203 5.732449 -7.183485 3.116051 1.267514 1.688279 3.064064 8.365147 1.872541 -2.033501 -4.150938 0.844427 -7.094323 3.916150
年 3.488993 -3.978381 -2.739687 6.062501 1.792611 -1.918831 -14.649096 4.083894 -2.360976 9.707797 -2.970984 7.532804 2.955270 -2.882524 -1.530404 2.682467 -1.699023 -6.197348 6.738899 -7.145720 -3.474600 -0.366401 6.392001 3.819024 -2.615739 7.857449 -2.879657 6.974497 -4.650743 -5.793205 -11.521580 6.142403 -3.481162 -1.908634 5.575935 12.916578 -6.180066 -2.971434 1.899533 -1.313421 1.358425 2.806710 0.588100 -0.631772 2.175545 -0.559678 10.694055 -3.740500 -3.583483 -4.736026 -12.276178 -1.266570 -9.833122 -2.698408 1.150332 3.978331 3.166424 3.954716 7.511804 -1.934564 1.946699 -4.478322 2.233955 2.592596
啊 3.527280 4.619584 0.479980 -7.375090 2.505164 -6.368958 7.524397 4.963553 -7.028288 6.066575 -2.081733 -3.754116 0.156876 2.509089 3.836094 2.952811 -1.684185 -2.832230 2.211425 4.414432 -0.066273 0.463125 3.483709 -0.251620 1.095694 4.613420 -3.480145 1.917838 1.345661 -0.657960 -3.968618 -3.356424 -0.080156 -0.447541 2.596832 -6.482463 3.933715 3.812213 2.941808 0.777436 1.709888 -2.967910 -4.039532 -6.405159 5.047709 -5.641086 1.933135 -5.694181 -4.170536 -4.379677 6.466760 -1.422726 -7.594497 -9.688516 2.448763 0.144938 0.599243 -5.822323 1.532924 1.798131 1.182303 7.310507 0.024183 7.971532
中 9.132970 -2.590862 8.822983 1.459746 5.885942 1.822755 -4.161469 5.666701 -1.608046 -12.494742 -8.195064 -0.792635 2.649766 -11.821665 1.390298 4.562881 -7.080610 -1.880606 6.876722 2.935911 -9.165611 5.501602 7.539687 -12.919991 -11.414500 -4.424124 0.449966 9.850722 2.924302 -12.849823 -8.142431 1.856931 8.012977 -11.576639 5.626987 4.504172 9.938460 2.072998 -6.423318 1.911396 -5.272025 9.823550 4.489500 10.292847 -8.312498 0.030599 2.312963 4.274934 5.273615 2.256672 3.591376 9.214058 4.445945 3.088877 4.761686 -3.515331 -1.981153 2.940663 -0.123365 -12.451381 8.446239 -14.181742 -3.319283 3.466002
不是 13.230055 -3.599967 5.643502 -5.217098 3.307810 -7.672427 -4.861620 -1.542463 3.823290 -2.952122 -2.692841 -10.012251 -4.607665 -1.271528 5.858133 -0.440735 -13.448726 -3.826489 4.127145 -5.593887 -8.836348 -3.711311 4.635296 7.936000 4.745406 12.103439 -2.582673 -2.092674 4.666341 12.557117 -0.308832 5.812812 -7.058190 3.701859 -0.398866 -4.759472 0.504135 5.464254 10.992478 -0.583611 -12.586220 0.159109 -6.037152 1.488689 2.092596 -8.521467 4.722270 -0.435084 -4.108410 -3.562258 6.153907 11.142825 -1.826574 -2.735149 -1.085324 -1.732003 -7.999305 7.422594 -6.753491 0.053627 -1.727817 12.596169 4.142121 -0.938770
就是 5.834342 -2.346887 10.583277 -8.028088 2.814295 1.719328 -0.333973 -4.509608 -0.491708 7.051732 -1.327646 -5.737039 -2.301600 3.778993 11.589762 1.581697 -10.483613 -6.563068 4.852822 -12.754168 -9.648179 -1.195041 0.152781 1.413104 10.424386 5.547871 0.898216 -4.889332 0.610936 1.559357 -4.360949 -5.952089 -5.894371 4.591620 -1.552028 -6.480570 0.054501 1.555541 4.249978 -0.035102 -3.013455 -1.830399 -3.475767 1.394899 -2.982824 -12.739677 5.885353 1.643834 -0.857559 2.202637 -3.347199 11.341913 -1.502345 -2.963711 1.585871 -5.386921 -3.211524 -2.649417 4.192844 -11.359030 0.955965 0.647346 -1.570188 2.157686
但 10.722795 -4.478585 5.164791 -6.861604 -1.683901 -2.739958 -4.622245 4.706779 7.181657 -4.738065 -5.665040 -4.763011 -2.788134 -2.607369 2.908896 0.867340 -4.199414 1.751311 -0.325260 5.173658 -6.798489 -6.792490 8.415740 -2.715565 -2.741897 2.446790 0.049183 6.615934 -6.027702 3.177162 -5.685728 -0.366003 -6.911713 3.267675 -0.231607 1.075248 2.423465 5.789088 1.134298 -5.290405 -0.667246 1.494449 -2.458941 5.382358 3.395216 -10.717275 -2.347938 2.099598 -3.605608 2.682363 0.946880 -1.856840 -5.288458 -5.025161 -3.092919 0.244199 5.917047 -0.309228 -8.470573 0.167544 4.169253 -13.487993 3.583288 0.846021
却 2.922272 1.547571 5.691281 -1.177085 0.842138 5.333357 -1.321979 8.972565 2.452037 4.489778 -3.093680 -1.787648 -8.287733 -3.849994 9.716013 -2.350736 -0.402214 2.884849 -1.066883 0.614241 -11.858011 -3.843669 4.276815 0.126547 0.504860 -8.551959 1.720874 -0.840774 -4.434107 0.922469 -7.369658 -12.548991 -7.527800 -0.332553 -4.115401 -4.141617 2.010672 0.844421 -4.296972 -5.298268 6.793401 15.539727 -2.557589 7.304918 1.444900 -7.032135 -1.955406 3.516426 -2.871140 5.353770 4.210421 1.664152 -4.583254 -1.511154 1.715683 1.826174 3.538815 -4.107762 -5.141713 -5.924517 -0.259268 -15.702606 3.647200 -6.143718
现在 0.879862 -1.296543 5.633084 -4.572732 4.309259 -3.907181 -0.331445 9.283699 -8.918943 0.762768 -0.235878 -6.425260 -2.122110 1.043455 -0.201438 4.757232 -2.731627 -0.321697 2.348362 1.101394 -2.485979 -3.375929 8.483279 -0.991834 -0.316413 0.814683 -2.547272 7.406215 0.222150 2.568098 0.436885 -0.442069 0.190108 -3.643336 -0.911810 -2.858259 -3.848718 5.198823 3.629219 0.724598 -5.382100 1.115361 0.594332 8.774759 4.644063 -3.788895 9.746368 1.832276 -6.788713 -2.985216 4.978441 1.891204 -4.248699 -7.674780 -4.224933 0.665639 0.968240 1.732785 1.071132 -0.191698 2.306336 -5.147239 5.720151 2.682554
能 12.493484 5.907770 15.514642 2.600778 0.579606 -6.170272 0.826017 9.736399 -4.708430 -6.977559 2.813236 -8.042298 4.092219 -1.262769 -4.271175 -4.927317 -3.190487 8.028492 -0.192863 2.415824 -12.842661 -6.304735 -4.837861 3.893358 -0.835828 12.255414 -13.441872 16.633476 -5.660919 5.967899 1.306376 1.281497 -4.195208 2.619873 -8.352874 -7.486938 -4.105975 -0.077773 -1.478198 6.009145 -2.170288 -8.532960 9.809212 0.473183 -2.921269 -9.561372 8.430992 0.689114 -11.799483 2.050030 3.723431 6.997796 1.470813 -4.266182 3.878266 6.556734 -8.127349 -0.286792 6.560676 -2.318305 12.051566 -3.869467 -9.262052 2.281820
等 -1.595740 -3.371971 5.776870 -1.102206 -4.456076 -0.048733 -3.201201 3.150727 -12.469941 2.192388 0.481616 -2.710543 1.814720 4.070452 -5.386340 -1.439574 3.491753 -4.231358 0.551005 3.700548 2.973888 -7.184134 -6.859365 -0.819727 0.821969 3.060989 1.966024 6.116994 0.642471 -1.306244 3.622356 1.370879 2.504937 2.655428 8.251745 -9.083568 -1.992749 -5.669189 -4.196008 4.602259 1.587725 -1.560873 1.720008 3.414571 -0.294110 4.341789 3.897824 -3.389363 -1.368309 3.949225 -2.184008 -5.307606 -1.025341 -8.425812 -12.885112 -0.269387 -6.390752 4.978480 16.379850 1.499244 -1.177637 -3.036061 -4.130972 -0.180835
看 4.701800 -0.084469 1.132134 6.723070 -9.484775 2.900004 2.518888 2.210821 -2.965574 2.555367 2.514442 -1.429065 -3.798202 3.916261 2.855480 0.030478 -9.133540 0.767209 8.095940 3.375134 -4.774733 -2.472222 -2.740611 4.626461 -9.370516 1.938396 5.030502 -5.126033 1.258300 3.982122 3.520588 3.959778 1.514782 2.454121 7.173073 -8.576244 3.528319 -1.395139 7.190275 5.223427 -0.215083 -4.242575 4.361798 -2.414989 2.687621 5.983645 6.119654 1.382044 -0.354905 -3.843543 4.918129 -7.032228 -5.694857 -0.570011 2.093282 -2.473790 4.418985 -12.592347 6.179267 1.388601 0.593554 -5.599585 -5.096430 5.084398
吧 1.292597 0.298928 4.482261 -8.817545 -3.834289 -0.744077 7.549406 5.359173 -7.314808 0.818417 -1.704502 -3.816839 4.269742 2.048251 1.373611 2.695379 -0.455507 -3.924281 -2.771423 3.343316 -0.923465 -1.182197 0.051211 6.643949 5.032176 5.391346 -3.914304 0.919709 -2.655545 -0.752649 -1.832275 2.267158 -0.060565 -0.880571 9.699594 -7.997067 1.215201 4.089079 -0.470930 4.393502 0.736117 -5.366946 -4.643388 1.216557 5.880960 2.278086 10.461535 1.521202 -1.643610 -0.734649 -1.845377 1.970901 -3.024653 -9.125630 -6.513642 -2.748022 -0.433914 -3.764738 4.893336 -0.966305 0.842353 4.384240 -6.164351 10.736480
从 5.169965 -8.493851 1.680265 1.838851 -4.931249 2.725965 0.184452 -1.699764 -2.358422 10.442899 6.788571 6.748972 4.907539 5.695435 -0.402359 2.427434 6.100457 -1.639723 11.630827 4.147979 -9.727193 -4.467822 -13.458688 1.797677 8.380518 -7.752777 1.574626 9.007263 1.411178 5.352269 -1.202257 -8.343658 1.188061 -3.906205 -1.688779 -6.574171 -2.975564 2.004162 -2.957281 1.653316 3.014034 9.510801 2.463596 5.305677 13.735906 -4.769934 -3.381117 4.150951 -7.797238 2.016629 0.808098 7.894285 10.402068 8.328905 -0.573076 9.357861 0.104177 2.518591 -0.279095 -5.022521 -5.665808 -11.161675 -10.506047 8.457558
想 3.199999 -0.161486 1.220538 0.867840 -1.898130 -0.967491 10.639686 4.160821 -4.324517 3.672070 1.023065 0.798248 -2.457687 3.117989 3.764247 3.418582 -3.573260 0.870811 -4.481302 2.054278 -0.803849 1.036196 4.735951 12.263107 -2.079257 10.808271 -3.035215 5.317985 -2.806070 -2.737568 2.884100 -7.423657 -5.446838 4.307245 -0.046154 -6.388932 0.196114 5.752454 -2.280785 -1.420055 -2.918709 -5.175923 2.668394 2.106625 -1.056192 -0.819562 9.390117 3.942615 -7.719100 -0.232069 3.599282 -1.848833 -1.506914 -2.909240 -1.037088 2.437227 -2.172123 6.975362 8.996034 3.544890 3.105817 -0.259988 3.639815 3.541655
还是 -1.211597 2.980795 5.449167 -6.726344 2.403548 0.569654 1.867376 3.471642 2.955398 5.483597 -2.592272 -2.684412 -4.775406 6.888873 5.075687 -0.333674 2.087126 -6.135483 0.091009 -8.803419 -13.684813 -6.841410 4.601417 1.338286 9.657640 -0.126428 4.979504 -3.366067 -3.072893 -1.113907 -8.960600 -8.218952 -5.349063 2.365082 0.497636 -9.594636 2.915693 3.885972 2.182894 -2.641033 0.219067 7.615779 -2.587296 0.547866 0.825878 -8.362973 6.935904 1.180499 -0.391328 -2.707907 -4.059161 6.137908 -6.276084 -8.382778 -1.501143 -4.313661 3.050728 -8.493167 0.990311 -6.746295 2.116549 -9.231820 0.079505 -0.320279
知道 5.147074 -7.869115 -1.402594 -3.876785 6.089213 -8.700088 0.740309 2.265094 -1.075182 10.216915 -4.516351 -0.349054 0.907777 5.975726 -2.942375 3.955231 -3.599713 4.951154 7.904858 1.666490 0.990569 1.356483 7.453730 5.942435 -2.357282 6.299217 2.734847 2.277992 -1.297005 7.175935 6.514697 0.708198 -6.168267 3.121896 -1.932811 -0.423105 1.732100 7.122781 7.622309 -0.695468 -2.155266 -8.894819 -2.270914 0.941413 0.061701 -3.833414 4.937297 -2.977698 -1.736833 -8.539404 3.446009 -0.463909 -6.233744 -0.141168 -2.877006 -2.217415 -1.956277 7.637214 2.657642 -0.493967 5.677658 -0.657548 6.566951 2.340056
看着 8.560211 5.429317 1.932004 7.831826 1.238615 5.159625 -1.812241 5.600926 -0.062361 5.321603 -0.005459 4.221964 -8.430429 4.873128 -3.137796 8.848664 -6.063668 -0.710842 5.773851 7.204981 -11.448897 0.324560 1.353687 2.844181 -0.232269 -9.856577 7.057784 5.003665 1.517968 3.813756 0.078250 2.934996 3.919085 -1.292551 2.906916 -13.732845 1.082461 -5.051866 4.281797 6.036448 2.922603 5.242165 -5.069232 -5.266553 1.923589 0.483712 5.115985 1.693843 4.110371 2.109910 0.024731 1.755076 -5.953851 8.420592 8.975369 -7.349683 2.853542 -8.960784 -0.799916 2.850975 -6.504642 -8.042225 -13.487401 8.624129
可以 7.814903 0.852176 14.481860 0.817043 0.789437 2.673499 -1.161586 7.329012 0.086282 -7.743840 2.608924 -8.081790 4.594102 6.439947 -1.977143 -3.670417 -8.713384 3.480985 2.124122 -2.223745 -12.770849 -5.136024 0.163075 4.836518 1.234043 10.669779 -9.278284 10.863581 -3.381050 2.889497 0.835116 0.470187 -5.767394 2.536237 -6.318370 -7.916295 -1.585915 1.010844 -1.073049 1.458911 -8.792209 -6.861954 5.576743 4.742247 -0.815812 -5.677487 9.868446 0.070653 -6.576327 6.598700 -1.619805 8.863304 4.942330 -6.144014 -0.099586 1.809551 -6.109889 0.741163 4.144902 -4.790669 8.602151 -0.511669 -10.543512 2.688472
时候 -0.912594 -2.197011 11.949643 2.018399 2.004214 0.879626 -7.242056 6.676228 -6.238329 -0.954289 -8.734232 -1.368506 4.243259 -7.944447 1.183227 7.722964 -1.767832 -5.927980 11.321798 1.962298 -5.215891 -3.115284 0.290520 1.912976 0.227529 1.030446 -0.112419 12.263208 -2.199516 -6.135206 -3.111048 -2.266148 2.036371 -7.135489 3.671647 0.295983 -0.961253 0.538101 -2.082016 9.741729 -4.543259 10.745962 -4.356579 9.072854 6.731476 -3.697769 8.274811 8.781150 -4.659168 -1.654764 -2.046136 2.476771 2.584926 3.417189 3.150198 0.466137 2.022447 6.235878 -2.714016 6.342936 -4.970640 -5.625728 0.005174 4.099426
这样 -0.120038 3.227190 8.094640 -9.018493 6.824003 -9.290211 -0.568934 11.021831 -3.664687 -1.434215 3.287101 -7.101836 -4.415986 3.722430 -0.099203 1.698134 -3.009047 4.590814 -2.469738 4.792228 1.531346 3.559002 9.763714 -2.578539 3.163487 -3.794492 -2.075541 4.222898 2.137644 6.726627 0.706143 3.205374 -2.895552 -7.603707 1.371333 -4.509245 -1.777680 8.101963 4.685241 2.195547 5.264461 -1.876493 -3.445636 5.615451 -5.267580 -6.823735 4.784653 0.839521 -5.534474 -2.453553 8.542160 -6.210139 4.187662 -5.043481 0.396870 5.115016 -3.812965 -2.520255 -2.084496 0.749942 9.259667 -0.360679 1.306046 1.626336
怎么 2.186217 10.169000 4.034441 -6.303261 1.573083 -7.671236 3.207523 3.761952 -6.860701 6.426610 -9.884528 -4.597945 -0.747431 -1.970656 0.580783 3.216244 1.778269 0.295249 -1.027112 0.514708 -1.428277 -9.234921 0.681391 2.044894 -1.259898 5.253311 -1.904866 0.614851 1.815713 -3.049087 4.964093 3.847212 -11.093841 -4.900097 8.730135 -5.422176 1.116925 8.872294 10.685252 1.199321 9.307862 14.576168 -3.411400 -5.494894 4.603483 -0.289678 5.477187 -3.032794 -9.273036 -11.232914 3.397598 -5.549592 -2.985421 -0.438039 -5.244555 3.404644 -4.302631 -5.488510 0.814436 -6.034582 0.099371 11.248177 3.746204 3.961206
并 0.365386 -1.330394 2.925698 -2.065981 0.197996 5.982080 1.026830 8.213819 5.682357 7.268436 -0.944665 3.123847 6.130002 4.176252 12.206728 -2.433141 -8.913704 2.093216 0.499255 2.204080 -13.574005 -3.302890 5.933992 -6.936662 4.083028 -2.857260 10.705863 -3.601147 -9.286453 -2.287041 -12.540819 -10.207952 -3.965391 -1.702835 -4.271322 -5.246425 -4.040007 4.434650 -2.065035 -5.368185 1.201452 5.562496 -9.508836 6.728129 5.209294 -7.144503 -1.530716 -3.353030 -2.083688 8.052143 -4.896237 2.256864 2.262216 4.772322 -14.968384 0.894863 4.270730 -4.917509 -2.394885 -4.692482 5.463245 -16.558193 -6.285766 -10.901312
里 8.548041 -4.095278 9.419635 5.714905 5.170096 1.855546 4.652285 -0.577551 -7.238177 -8.325616 -3.965191 -2.362189 5.917027 -7.148790 4.118320 4.601744 -5.225328 -3.186751 9.494186 5.323851 -5.997994 -0.437497 9.481169 -11.195513 -13.703561 -5.464134 0.429741 6.170652 4.389935 -11.849615 -5.253851 4.714894 10.770102 -13.553547 11.852060 2.225098 10.036563 -0.889044 -8.028055 5.512251 -5.365353 10.134301 4.165323 5.601183 -9.174112 -1.330584 7.840666 4.488936 6.401975 0.959672 8.719640 11.746751 6.843728 -3.167475 6.459224 0.625757 -8.395748 -2.396019 1.399656 -10.176130 1.588835 -10.213621 2.042766 4.591751
后 3.039877 -7.400727 10.326542 0.182868 -4.272454 9.228463 -0.762588 5.681790 -10.127121 -10.357922 -6.160469 2.290277 4.439801 -2.762373 -3.190389 5.751306 0.744848 -1.309420 -0.712667 1.037456 -8.881235 2.487576 -0.958839 -1.157413 4.456647 -0.708265 -0.616570 16.613058 -3.544784 -4.393004 -3.690910 2.494874 2.745227 -2.311245 7.397020 4.493824 1.963432 0.480226 -6.173068 5.428378 4.437275 6.721611 5.024058 15.785103 0.548514 5.130580 -1.550986 6.681769 -2.879489 0.083003 -1.045645 1.659920 3.474833 -4.329162 2.940505 3.230710 -2.548868 5.547182 11.708229 1.140715 0.084407 -6.433196 -14.435487 3.463898
不过 6.819302 -5.171871 3.290524 -7.450483 -1.900824 -0.385524 -1.800461 3.232944 1.331644 -2.481128 -6.445856 -4.926605 -2.820461 -2.274002 3.165792 2.531945 -5.054350 0.385327 0.710606 -2.298397 -5.019870 -3.315963 6.630276 0.748100 -1.196947 8.019514 -2.385704 6.364699 -3.423282 2.833704 -2.617258 3.112004 -7.997324 2.063818 2.839003 -0.434561 1.651779 5.351100 0.738717 -1.875211 -0.288921 -3.042706 -3.480685 2.852175 4.224751 -4.262687 -1.095668 0.146789 -3.884389 0.986317 4.093922 -1.954531 -4.426012 -6.786044 -4.605984 -0.526347 2.615365 -2.907085 -1.409111 -1.213643 1.304314 -6.450036 1.838802 3.367917
但是 9.701467 -3.127715 5.999261 -7.117721 -0.259336 -1.692607 -3.490460 5.056667 4.540584 -2.506047 -7.488839 -5.170008 -1.310646 -1.267723 1.177248 1.755771 -4.040839 0.787381 1.412050 4.213572 -7.146970 -8.642492 9.183537 -2.979125 -0.316672 3.982383 0.549293 5.692242 -2.994467 1.426319 -4.247473 0.138616 -6.292509 1.545329 0.346912 1.665256 1.387547 4.743705 0.704582 -4.624014 -0.930022 1.793857 -1.813224 3.896788 3.807849 -11.163501 -2.902131 2.267030 -4.441140 2.294989 -1.473659 -0.983005 -3.636755 -3.887377 -5.027922 -0.856988 4.191436 0.850361 -6.959592 1.133224 4.238811 -10.679958 1.716553 0.736710
吗 4.992177 5.010322 1.803318 -11.012553 1.779063 -5.428131 5.875240 8.007461 -8.118797 6.975681 -2.428649 -2.628528 4.099911 1.854601 3.847056 0.975411 -6.865720 -0.895578 -1.865390 5.838555 -1.781126 -6.037457 4.723247 1.727631 -0.930148 7.541107 -0.356677 0.139142 1.175947 -6.995449 0.752748 0.035105 -2.362381 -5.605817 5.448083 -4.099032 2.729434 2.759410 2.605076 -0.803428 4.689347 4.960606 -4.863628 -3.263093 7.597847 -0.534661 3.370314 -3.182397 -6.604206 -2.644786 0.277242 -3.215230 -2.220984 -2.951306 -5.117178 -1.423440 -4.147830 -4.315530 2.234769 -0.669547 1.212906 6.734274 -5.512176 4.929770
一 -1.927989 -5.085429 4.975329 5.474999 -4.576006 3.921371 3.733679 4.808999 -12.058847 5.777972 4.562968 4.888424 -4.639364 -5.617426 3.826128 1.238935 -2.173186 -1.713679 -5.083684 11.556705 1.616639 7.934034 1.875681 -2.322720 10.636354 -1.944356 1.597517 8.196779 -1.289716 5.340242 -5.894301 -7.565660 -0.765813 -3.322055 -1.915272 -4.269916 -1.337096 1.706406 -9.134814 5.530093 0.832795 7.334816 5.233057 11.159374 9.681478 2.137029 3.594292 2.913957 2.520262 -6.523908 7.642444 11.019692 6.011104 4.915816 6.787572 8.608500 0.564269 -3.257393 5.731864 14.880212 -2.910563 -3.784719 -7.235827 2.260154
月 -2.658737 -5.996879 -0.304641 0.797575 3.081189 9.803044 -7.477936 4.238408 -4.758948 12.101220 -5.132521 13.665578 -2.013389 -3.225528 -3.805418 -2.238407 -4.521321 -1.562513 7.286765 -8.710814 -4.481627 9.769765 -1.765946 4.502400 2.285641 -2.603828 -4.344549 9.159251 -11.789271 -4.928249 -4.695478 4.364504 -2.369522 -11.703692 1.698612 6.403094 -1.340417 -1.141927 1.559885 13.579408 0.092356 3.021379 -3.429578 -0.452410 -4.035639 3.178860 5.004001 -0.476977 -10.075593 -2.515070 -11.444732 -7.438522 -7.149522 -5.942074 -5.306520 0.143839 5.364654 -2.989643 4.236646 -1.059900 0.939530 1.593119 6.120210 0.623029
个 6.335375 -4.494090 -8.538701 -2.878802 0.516615 -8.496838 0.950359 -0.950872 -3.365203 1.231559 9.802082 -10.332500 -3.435501 -1.374917 0.313712 -0.213899 -10.054338 -3.903025 -5.883396 5.528218 8.833539 2.336329 7.130930 -5.632760 -4.172022 0.627768 -4.428924 -1.041399 7.623021 7.081176 -2.670872 -1.844155 -13.238471 -1.735970 1.884745 -3.948658 2.579695 10.511462 3.255787 -3.004033 5.139049 -2.103358 3.882359 2.982298 0.261793 -7.730577 1.287099 -2.112775 5.250288 -1.613141 14.307498 5.841246 4.089210 -7.437745 5.302474 7.300482 -10.038059 -13.528847 3.106427 1.009670 -8.138956 -1.856536 -5.681976 1.757354
起来 -1.430215 1.449870 -4.419213 4.369055 5.395313 13.774763 6.997116 7.254323 0.882580 -10.087992 -6.033491 9.870663 -11.640927 0.360384 3.644722 12.464267 -3.007810 3.502774 10.982501 0.750964 5.991015 5.168304 8.912101 1.323496 -2.429073 -7.856564 -3.653312 1.914860 -1.035298 3.064142 0.557190 -1.918184 -6.715439 -0.835544 -2.037851 -4.563484 4.257496 16.011518 -4.974546 4.231016 -3.097220 13.776965 -1.159440 -3.374860 -4.052521 -2.930182 10.358981 1.575662 4.070366 -4.279170 6.305191 2.000864 -5.347235 -0.125153 7.117784 9.046990 -2.450493 0.254272 -3.696007 -5.921197 1.131900 3.512236 -6.900618 10.942546
有些 2.094289 9.223425 -2.215501 -7.860860 -2.883819 5.278791 -3.923554 1.132785 9.752739 -3.647283 3.244375 4.256111 -11.273027 8.041535 0.953209 4.896693 -2.379219 0.642329 1.465998 7.469416 -9.617932 1.533957 9.600528 -0.924903 -2.087171 -4.326578 4.825460 7.093358 0.432452 9.318521 1.219955 -2.672504 2.062619 1.368743 9.319884 -8.084841 -3.220170 18.236553 1.919680 11.604027 -1.297701 7.112552 -7.064618 4.029430 2.730921 -8.637062 -3.780023 -1.858583 -1.198545 -8.020617 6.702788 -1.682701 -5.825508 -4.069813 -0.657186 0.593364 6.277924 -3.489426 -8.407012 1.338156 1.822769 -4.117899 6.382892 -7.267501
只是 6.440457 -1.535058 5.693652 -2.736112 1.168480 4.416542 -3.788345 1.393626 5.187890 -2.784840 -3.565100 -2.980798 -4.368684 -1.284652 7.048562 -2.819679 -7.853494 -2.111626 -1.151790 -4.008161 -13.655641 -2.911666 4.249715 4.911195 3.314941 4.049538 1.597077 1.663218 -5.676763 1.898123 -7.648339 -1.975070 -6.820481 0.344485 1.038707 -4.665907 -2.007052 4.477994 -0.926385 -1.374414 -1.262867 1.597648 -6.616440 -0.564981 -0.797014 -4.387956 1.012186 2.221087 -3.527336 1.971954 0.416992 1.588529 -3.422717 -1.465258 -5.085739 -2.723665 0.718009 -2.442452 -2.879112 -7.405129 2.131998 -7.119080 1.094261 -2.627046
才 -2.041155 0.903410 2.773494 -3.902737 -4.209101 3.142696 -1.421062 7.305021 -5.007555 5.010765 -1.345741 2.220438 0.617920 2.234858 7.820390 1.989956 -0.394901 0.159389 -1.337140 -8.433753 -9.095615 -3.009538 -1.572725 4.528215 7.772225 2.144514 5.046339 1.867546 0.640786 -6.812027 -10.054309 -4.649928 -3.957892 -2.673158 -0.200851 -6.234498 6.588425 -0.000367 -8.885847 1.338461 4.221928 10.094868 0.082308 7.531311 8.908554 -5.665598 -0.017190 -3.308676 -2.691955 -0.934289 -0.619048 0.527695 -3.085959 -10.453707 4.941289 -0.214738 -0.782059 -3.200262 15.443932 -5.378895 -3.894011 -11.190485 -7.739625 1.759500
呢 1.601163 6.143609 1.502000 -5.128341 3.446865 -5.613843 3.800813 2.044518 -8.447981 4.056431 -1.303418 -1.824982 0.618876 2.050416 1.242445 -1.228452 -2.273763 -6.885479 2.409228 3.886356 -0.973987 -2.627549 3.076312 2.868136 0.248355 5.496617 -2.550522 6.994431 -1.858225 -0.115908 -1.492215 -1.875976 -0.757066 -1.583215 2.884136 -4.619112 1.760580 2.561865 3.826355 1.804438 0.975968 2.715688 -1.524909 -5.414186 1.289701 -1.585540 5.069995 -5.150580 -5.568205 -4.494145 5.666815 -1.833530 -3.393634 -2.180292 -0.595886 -0.681847 -5.044438 -1.466686 2.186996 0.459419 0.967250 3.468281 -1.813919 2.480420
没 8.201926 -2.130105 13.265174 3.978761 -2.501162 3.829110 -5.997297 4.985450 -5.732899 -7.896891 -6.586120 -2.841731 -4.968946 1.058240 2.666438 -7.198511 -9.370987 0.378953 2.594646 -3.630000 -11.381119 -5.881869 -4.181393 12.781006 8.168865 11.797407 -5.450858 12.117267 2.289548 11.541081 3.367669 6.477517 5.791752 6.138545 6.831902 -3.183211 -7.864983 3.293194 -3.628925 7.295688 -12.631074 7.421981 0.124418 2.910564 9.499245 -2.891854 -4.865225 -3.039792 -6.807585 -3.856996 14.266985 0.259776 -0.222435 -12.893912 2.087889 5.387225 -13.871785 4.371900 12.662115 12.309184 -4.222151 6.923279 -0.526414 -9.939505
可 7.838861 0.369037 4.367142 -4.558846 0.872046 -5.368299 -0.082459 3.275851 -0.600707 1.346335 -5.060871 0.009705 1.996444 -5.413980 4.145585 1.208601 -0.664446 0.533928 1.094257 6.574062 -0.703839 -9.241058 4.577661 -1.117862 1.972170 5.010460 -2.646096 5.319677 -6.776583 0.553482 -3.478145 -1.484200 -5.892227 4.414054 1.499519 -2.396543 -0.478572 1.707870 1.071723 -0.898029 1.357301 -0.984880 -1.869558 -0.646944 3.569145 -7.266142 0.346299 -3.155437 -3.981565 3.638167 2.355403 -4.517078 -3.831718 -4.263555 -2.803150 0.844874 5.656649 -3.645709 -1.142095 -3.967350 1.486980 -7.910824 -1.152297 1.045405
再 -1.939628 5.415170 8.992320 -3.062254 -4.514484 7.468735 6.937608 5.870441 -6.842353 5.546811 1.075526 2.745174 -3.367240 5.966544 2.050047 -2.709684 -1.140056 1.934387 1.264197 2.670018 -3.989419 1.089300 -0.838448 5.707490 8.410457 -4.483284 -2.108510 2.119179 -14.235048 -3.098689 -6.989110 -3.700889 -2.008339 -2.156812 5.218483 -10.725512 -0.040225 0.502999 1.014831 8.520632 -1.656425 1.052973 0.097819 8.436808 -1.812463 -3.208984 3.748091 -0.298828 -3.074631 0.833573 1.047495 -7.743412 4.363893 -6.045222 -5.141743 8.580144 0.311961 -4.527957 4.864474 -3.599835 6.624414 -8.927835 -7.485392 -1.867468
做 -5.246582 -3.496356 5.326276 0.658659 -3.004070 -14.527506 5.686161 -5.329314 -8.873537 0.826161 0.490410 -5.735019 -4.768090 0.599865 3.325907 -3.905515 -12.526725 -11.128756 1.075982 3.254651 3.966007 -1.076867 8.476548 2.927207 -0.934538 5.426023 5.196720 -5.650405 -2.240093 -0.223948 0.328545 -4.324729 -8.275237 2.066727 0.219360 1.768225 -0.108555 -3.238350 10.833173 0.450597 2.443350 -8.151418 -9.327346 0.357104 -9.294802 -1.518614 2.670816 -3.839448 -5.179185 -3.976800 -11.066821 -1.939876 -3.712326 -7.617230 -5.199543 0.296268 -3.233531 7.826684 4.230151 1.838757 3.096520 -0.784608 5.416731 2.998439
这么 -3.166535 9.986691 5.655998 -8.760988 -0.044011 -8.973642 -0.387360 7.331650 -6.336481 6.118681 0.441365 2.416081 -5.318000 6.605479 -3.510824 3.204005 -3.222971 5.611561 4.682197 5.517736 2.209282 6.189754 8.536204 -0.949302 5.191538 -2.080064 -5.048485 4.607612 4.806782 5.012150 -1.390963 5.945243 0.382236 -12.767455 1.938238 -4.023224 2.130013 14.693051 -2.025517 10.784959 7.616020 -2.285930 -8.275325 -2.644395 -4.635372 -14.227180 2.816403 -5.788532 -3.626235 0.204011 15.935228 -14.604495 2.437428 -7.845915 1.472771 11.411027 -6.586112 -5.508328 -4.344315 -1.587885 8.417876 -0.073533 -0.499963 -4.394204
因为 6.083698 -2.940628 6.118302 -8.654917 3.986078 0.266462 -2.964592 6.270360 0.461375 2.314886 -4.265667 -1.279543 1.632213 1.735585 2.762786 6.868595 -5.407939 -3.718637 4.426607 2.384266 -2.999085 -0.836838 6.196342 -2.454724 3.073363 3.346273 6.605771 6.122008 -3.726822 2.272580 -4.904782 -1.306610 -4.903798 -2.366014 2.385517 2.703391 -1.840413 5.007247 1.744070 -2.096446 -2.041287 1.411483 -3.993811 10.487037 2.976184 -8.502242 -1.735218 0.178023 -3.972668 -2.590729 -0.833188 2.821079 -0.361382 2.852247 -5.996309 0.158400 2.212478 4.770565 -5.894983 2.272506 -1.840833 -7.939330 3.776516 -2.644310
便 -2.522388 -2.947130 9.431342 -0.857313 -8.641853 11.352846 0.293449 4.434410 -3.972267 2.112195 -6.443952 4.332783 -2.826409 -3.930165 12.953082 -2.171508 0.259162 1.499294 -4.536356 -7.038844 -5.775702 0.763705 -4.080234 5.238148 6.214274 -6.717875 1.908077 -3.140050 -5.223518 -2.830607 -5.241457 -7.295711 -3.316017 2.454315 1.466837 -5.573375 4.001612 -0.418519 -11.002632 1.316038 7.756161 11.422908 -2.436156 10.742948 2.230692 0.301579 1.956849 0.472917 1.030196 7.404903 -3.918595 3.497503 1.801105 -3.122584 1.391774 0.346212 1.570129 -3.251402 13.291851 -12.287834 -0.493627 -8.244445 -9.455677 -2.424147
跟 5.087168 -4.961180 4.431937 -1.514982 -0.974744 -1.452955 -6.406556 0.564899 -4.475873 6.360178 -7.183872 -1.038670 0.828713 8.046568 4.694855 5.045893 -6.419779 -15.383675 1.328830 3.447501 -1.943778 -7.408461 6.016338 3.726111 7.648367 -0.851629 -2.227341 7.600653 -5.875113 5.745566 1.864046 2.895425 1.281944 6.564493 0.866038 -0.832645 -1.572285 1.059337 1.319022 0.412305 0.410627 -1.560734 -5.012461 -6.592185 -0.709657 -2.140056 8.632888 3.809510 1.287034 -3.875286 -3.829894 -4.098750 7.245173 2.482222 -10.766530 2.703577 0.929652 -3.404391 1.845447 0.399476 3.204836 12.217783 -2.197077 2.069279
可是 7.292676 -1.767923 5.307242 -6.014774 2.482346 -4.319732 -2.800094 1.539086 0.647950 3.383435 -6.083475 -1.344760 0.243470 -2.933518 3.112511 3.369590 -1.112236 -2.383745 3.113915 0.169952 -5.663846 -10.287062 5.559876 0.592565 4.249242 5.706306 0.524660 3.296377 0.068916 -1.492683 -3.158796 -2.584035 -6.268936 3.248836 1.331417 -1.421712 2.103276 1.191688 2.347901 -2.796967 0.814530 2.414135 -1.526323 -1.154486 3.102480 -9.765295 -1.008364 -2.164448 -4.307200 1.602760 -1.783587 0.566470 -5.569555 -3.100834 -0.316691 -1.564687 3.045293 -1.137239 -1.613489 -2.758061 0.981336 -2.768136 -0.331818 0.495454
不会 6.117073 6.864858 16.897818 -9.899182 2.692574 -4.203829 -2.906867 9.130340 -0.164315 1.121289 -10.988410 -11.401741 -0.210114 -4.079205 -3.052758 -1.189557 -5.713538 3.265296 0.066458 -3.709144 -7.580020 2.079859 1.315961 14.551801 4.403475 16.170427 -1.445448 -1.566375 0.111383 9.451190 1.607508 10.799581 -6.835358 2.729336 1.969417 -3.671967 -1.856754 5.558843 7.087149 2.283141 -4.082805 1.054151 -3.517920 11.995745 -0.663784 -5.741876 12.142771 -4.164049 -0.216331 -6.210473 -0.164121 4.712123 2.700370 -3.558265 2.278049 -1.505735 -10.522636 7.325546 5.976950 6.679999 -0.494872 7.261490 -0.576952 -9.242599
走 -4.999413 -7.582653 -5.921715 1.174104 -8.034288 -6.939257 -1.784145 -4.090065 -2.424580 3.547419 -4.225967 0.342874 -2.008268 -1.691066 3.777706 4.438736 3.823828 -2.373337 0.081270 7.466129 3.863391 -3.999368 -4.389236 11.496208 -0.831021 -4.971735 0.967697 -6.950133 6.297085 8.941480 -2.945206 2.513685 9.809391 0.095533 5.245617 -8.226110 7.755863 -4.180774 -4.805650 9.313066 -1.430190 0.015738 3.909265 -5.654723 2.063865 3.930441 9.876851 6.647422 -4.879576 7.673697 -2.596416 -3.582170 6.154742 -6.746858 -8.452805 0.733237 0.523220 -1.792795 4.243052 0.514031 -4.524947 -1.734359 -1.411213 -0.077956
这些 -1.021426 -3.640815 9.400895 -11.139796 4.702572 -7.999650 5.753247 -4.261658 -2.147066 -7.313787 7.736095 -9.424464 -9.951547 5.778291 -4.499908 -0.693097 -2.322893 3.668718 4.061369 6.698517 -3.408282 -0.411129 10.809964 -7.510524 -3.441577 -6.589658 0.492304 2.212411 7.182140 9.576312 -1.932686 -0.147834 -2.110625 1.938068 5.808192 -3.159938 -5.114790 7.565392 -3.754774 -12.063110 1.879419 0.234681 0.694741 8.555086 -3.043808 -2.080137 5.962728 -2.798098 1.538837 -4.727309 6.051220 2.188180 -1.196797 1.375080 -9.916234 9.117776 -7.571550 -6.863512 6.377273 -4.548437 9.618960 0.085353 -0.036496 -3.419848
虽然 4.745086 -1.009103 0.543790 -6.611594 2.651361 1.193097 -4.330668 8.300478 2.930542 5.784745 -6.272357 -0.023450 0.515655 2.474789 1.649149 1.309091 -1.357093 -3.408474 3.091421 -3.505169 -12.772048 -4.241952 8.688675 -8.144157 3.486512 0.926510 4.141047 4.259809 -2.002386 0.146052 -4.307180 -2.327589 -7.213481 1.367881 0.670304 0.725489 -0.947913 5.139674 -0.390786 -7.819226 1.748840 4.439743 -5.372291 3.641967 3.098649 -7.037715 -2.220344 -1.239194 -1.446018 2.292204 0.432094 4.779119 -5.179404 -3.681870 -9.250566 2.808547 3.437223 -7.703829 -3.164046 -1.601350 0.897143 -9.568158 1.810312 -3.924430
你们 -7.396940 -1.202188 7.258462 -10.813036 6.874174 -4.623597 9.920197 4.312861 -7.474507 5.338425 1.718725 -1.625064 -0.694951 2.599191 5.163076 -0.757353 -3.831889 -2.420347 1.177248 5.365067 -3.398377 2.276554 -4.012426 6.330891 -4.879126 5.824941 -4.425607 4.236853 -4.316628 0.399314 0.933649 6.778138 0.631371 -1.922186 2.057787 -5.754545 2.329655 -1.679018 -0.612415 1.234782 -0.251818 0.763755 -2.860469 0.330208 2.131664 1.404240 12.397314 2.134960 -2.405911 -3.068785 0.387227 -3.054321 -4.643889 -7.630538 -9.080687 1.428882 -1.468259 -4.149947 3.040347 -3.362878 4.335804 10.866689 -3.528112 8.168325
之后 2.038824 -8.044459 12.521422 -0.256616 -4.287140 7.858050 -2.922500 6.225784 -10.308681 -9.838762 -6.709130 1.854029 2.886365 -3.981359 -2.960026 6.206742 0.009361 -1.086979 0.704615 1.313203 -7.988462 2.488809 1.671205 -0.409243 3.943413 1.274640 -2.648551 15.926049 -1.645097 -4.085764 -3.175421 2.852382 -0.251205 -1.250266 7.269737 3.089237 0.652099 2.745206 -5.742099 4.675230 4.069768 7.405326 4.652837 16.202520 0.857437 3.043253 -1.535879 5.938072 -2.644995 -1.240334 -2.028137 0.600399 4.661454 -3.554286 0.104353 2.918788 -0.996607 7.039664 11.117578 1.048136 1.200789 -6.541398 -11.942238 3.269738
事情 1.560756 -9.477617 5.860462 -1.064202 5.165079 -8.490839 5.983476 2.296071 -4.046674 8.092923 -3.399329 -7.096592 -2.509972 4.342739 9.714879 8.649441 7.289183 -0.049448 -4.104688 -1.606776 -5.227316 -5.535309 3.289621 11.838066 1.094071 12.195482 -1.521063 6.288014 0.325168 -5.696536 1.384504 5.449284 -4.349960 4.044305 -2.628241 2.511474 -7.777322 6.903655 -2.480918 6.790603 2.172367 1.639290 -20.923096 3.140392 -0.368015 -3.434365 19.965479 -4.214453 1.760674 -6.409454 -8.563470 -5.632331 6.182380 4.142667 -2.357945 7.890245 6.021993 7.309506 -4.749165 -0.281077 2.766091 -10.847826 -0.745507 -1.459437
看到 1.191603 -5.395208 3.487242 2.592432 5.063271 2.669282 -7.727842 1.237180 -5.609041 4.036141 -4.564902 3.638053 1.159680 4.221438 2.375109 4.871936 -3.855064 -0.043441 17.358782 4.546870 -1.729670 -1.258566 -0.398309 2.564088 -7.485522 -5.903833 5.308421 2.272032 3.763712 4.574736 4.218033 -2.722693 -0.093441 2.595866 -1.546538 -3.044008 1.915897 -1.113136 4.505445 7.939522 3.877846 -1.436845 1.934383 -2.646977 1.093888 2.679857 -6.690442 0.721773 -0.019708 0.712159 2.932963 -3.146610 3.431563 7.644395 -0.294465 -4.814673 0.904689 -1.973418 -1.746505 0.532172 -2.791157 -8.195379 -4.868687 3.289446
出来 3.349404 -4.773708 0.336701 3.174320 15.999128 5.034629 9.336067 -0.529940 -4.210511 -3.436542 -3.348713 5.787032 0.013728 5.629251 2.092007 2.316325 -0.629818 8.824538 14.709557 -4.018307 7.209953 3.388319 0.363898 -0.768790 -5.079189 -8.244314 -8.927725 -1.183506 -1.748842 4.707211 2.270004 -5.258018 -11.898828 2.501535 0.311232 1.174032 11.936155 11.895952 -4.362380 2.272763 -4.047865 8.378027 1.324491 -2.336200 -2.929834 4.475997 5.403816 3.001413 -1.437552 3.330473 8.525429 6.722036 -3.127511 -2.850639 -0.934255 12.102843 -8.261359 0.412007 -4.311203 -11.463479 3.060841 0.575285 -8.366575 7.602665
如果 5.157601 4.065001 6.206560 -10.572614 5.096952 -3.497892 2.810472 11.727730 -6.105536 8.774715 -8.426956 -2.814620 4.274801 4.568939 2.872893 -1.901659 -5.213151 -0.403746 -2.169677 0.570012 -1.562564 -3.994486 5.155183 -2.044080 3.314546 9.548067 2.341898 -3.775333 -4.052606 -5.390525 0.856351 -1.633793 -6.577497 -2.988713 -0.806474 -4.104647 -0.761011 0.712043 1.502761 -2.144370 4.412845 -0.257966 -3.598339 6.659182 7.038988 -2.394406 2.962868 -0.601256 -5.819285 4.805594 -2.980254 0.723053 1.152128 -1.418081 -10.704080 -1.973058 -1.465290 -0.638601 -0.087926 -2.258922 5.533622 -5.902739 -3.615810 -0.270632
得 12.278006 3.594693 1.180975 -1.025784 0.555536 0.930992 8.438886 12.125221 -1.881465 -5.863878 -8.836418 4.549009 -10.330051 0.565876 -3.845262 5.932920 4.171223 -0.506937 5.492266 4.536624 1.093422 0.407773 8.643147 0.494667 3.574198 -3.706211 -8.451620 8.111330 -3.900047 5.247796 4.814143 -5.862568 -8.713969 8.510387 0.602700 1.064221 0.611063 4.709415 -4.818631 7.570059 2.980419 2.957324 -1.155066 0.709198 0.705123 -7.236140 8.314631 -5.317366 3.441653 1.061735 7.638726 4.240003 -6.851923 -3.737228 6.425885 7.327210 4.424539 -4.796795 -5.464046 3.722233 -3.088798 -4.361856 -8.064651 9.106892
过 5.101733 -12.299523 7.711390 3.689045 7.892622 4.192216 -6.169557 5.958325 -1.690417 -0.062281 -3.284393 1.137850 3.343227 2.537178 3.623674 1.037156 1.285078 -0.969004 8.361319 -1.450323 -6.155494 -2.028252 8.800620 9.731211 3.563373 2.395770 -0.930246 6.918065 -5.299452 -6.253347 -6.590495 -1.636463 -7.070294 3.856815 2.555475 4.752304 0.542681 2.922167 -3.493613 -0.495143 3.104552 3.043932 2.440421 -1.237683 -2.511936 3.107413 2.626337 -0.713975 -1.422626 -5.562145 3.940805 -2.894978 0.319239 -2.421001 -0.513957 12.789374 -9.866138 -0.996265 -0.209806 -6.521610 6.135746 0.655605 -2.992201 3.900598
下 -0.777138 -3.096046 9.714480 2.268154 7.584965 8.100360 4.029916 7.198763 -3.604330 -12.209113 -6.390548 0.557006 -3.885950 -8.716949 -5.294609 2.598179 -8.150134 -1.443670 5.005346 -5.151567 3.952761 4.028477 5.205223 1.302875 2.737147 -8.591067 3.889749 2.331750 -14.154196 -4.887248 -3.612327 -2.978026 2.249107 -9.269909 1.937195 -0.123501 5.299494 2.813914 2.302550 2.348407 1.558281 6.243520 4.009662 4.190591 -12.903721 5.517632 -1.486246 6.072410 -0.058318 -5.894906 4.988440 5.962515 -2.475318 -6.394010 3.251510 -1.292570 1.359547 -1.015262 -2.012582 -5.305863 6.188843 -4.697783 -10.085299 8.215915
所以 2.222272 -3.744066 9.771585 -10.600921 1.771293 -2.184386 0.010937 6.066769 -0.558773 -3.102511 -5.276399 -3.977824 2.342890 1.710868 -2.150451 3.347411 -0.956799 -3.149672 1.484872 1.157066 1.229915 -6.236095 5.705408 -1.002999 1.550413 5.250945 4.612231 4.437390 -6.456455 3.466346 -3.826201 1.775975 -6.523836 -0.906090 2.807986 3.102428 1.421574 6.413911 -0.316757 -1.982581 0.128634 1.474544 -4.495436 8.483386 0.336527 -6.803830 4.653018 2.894243 -3.089764 0.555761 -3.289149 -0.931743 -0.843255 -2.077510 -7.934466 0.088769 2.357521 2.313823 -1.250384 -1.609464 1.758892 -4.368550 -1.495532 3.591729
这里 -8.429331 -5.319552 6.641604 -7.762354 6.737534 -3.742789 1.198926 8.796093 -9.739925 -5.993557 0.005126 -12.839867 -2.087406 -1.538447 -1.561237 4.962205 0.166175 2.085093 2.962998 3.962734 -2.191988 0.914785 15.865550 2.830826 -6.602586 0.258101 -0.420288 1.207561 -2.255607 -5.567907 -2.463812 5.747814 7.066259 -8.013096 3.696622 -1.476684 1.781536 2.124939 -5.904431 5.618702 -1.138930 4.016624 2.075047 3.947493 -5.867430 2.455499 7.554769 1.351279 -4.807608 1.774905 10.032568 2.698099 0.849885 -1.345175 -4.807246 -5.884700 -1.117787 0.632817 9.226494 2.252663 7.999401 1.346394 2.919621 -0.289855
那个 3.451164 -2.668797 -2.809037 -10.799244 6.158721 -4.893076 2.555997 -5.224315 -5.194303 0.323368 8.803045 -10.455748 -1.924421 6.056802 1.896128 5.366669 -4.512367 -0.827521 1.694400 10.752751 0.404733 -0.855623 1.600710 -1.678106 2.468985 -6.497141 -2.817953 0.592874 9.968769 2.170658 -0.116392 -4.325282 -2.470904 -6.111839 2.393851 -1.116170 -2.179356 4.156220 0.180925 -4.553142 2.644469 0.099406 6.337435 6.155930 -1.435630 -2.007944 -0.904484 6.580173 -2.696119 -1.545915 13.913023 1.948219 2.609999 4.514031 0.850839 3.811818 -9.800403 -9.932930 3.921317 1.534896 -1.936648 1.846043 -5.864210 -3.082210
还有 -1.668098 -2.045557 5.867344 -8.281008 4.874241 7.087538 -1.394293 -4.568165 -3.244837 10.210334 -1.737156 2.581469 -2.068710 11.986320 5.763900 -5.024431 -2.431293 -8.974238 8.874430 0.540196 -8.535915 -2.710119 -2.855177 -0.810507 6.527220 2.010540 3.238766 8.176839 -4.339399 0.243527 -0.850667 -4.400763 3.636169 4.134044 4.722997 -6.847325 -3.650229 -6.454442 3.670274 1.258898 -3.828214 -3.111978 0.203832 -9.146981 -2.599542 -6.459245 -3.834788 -3.638700 -5.627233 -1.787356 -3.360570 9.581749 -2.079332 0.363762 -4.382103 -3.261394 -6.448961 -1.509991 1.197751 -3.343997 5.476258 -3.863727 -0.927607 -2.414809
以 1.824946 3.657937 4.676301 -2.105558 -2.744067 -5.663041 -0.519117 3.329371 2.285542 1.241244 4.870107 -2.281540 1.876606 3.407874 -5.515446 -5.331426 -6.656529 -5.540165 -1.278143 -1.263011 -8.080231 -0.018880 -1.518711 -3.958328 9.743480 0.391707 3.861026 9.009767 -11.246330 6.452873 -2.167199 -2.544106 -1.915739 -2.010097 -7.980837 2.309090 -1.147784 -2.718626 11.945273 -3.189370 -2.220446 -5.917744 1.864537 6.962365 -2.726997 -4.950022 -0.815760 1.110136 -7.833146 -2.383479 -3.115978 2.516240 0.350019 0.179448 -1.769986 -0.525896 3.970118 0.883510 -0.532911 -8.584487 9.364446 -1.464569 -11.833949 3.557519
的话 6.414479 -2.118437 3.704586 -6.245835 3.621049 -3.970527 2.120922 2.297274 -2.479081 -2.202032 -8.121765 -3.238636 -2.371626 7.418191 3.315799 1.351221 5.923234 4.588387 -2.065226 5.843512 -2.833162 -3.089191 6.698483 2.322588 5.546731 10.738745 -7.526509 0.958041 -6.877916 4.100144 1.869111 0.111211 -8.060629 -0.278117 0.921816 -6.549055 -5.601887 1.366265 -2.012362 3.787084 4.139686 3.119185 -7.747503 7.529457 6.642679 -1.002877 6.463790 8.178707 2.461690 -0.278297 -0.263658 -3.992761 3.862186 0.111010 -4.798880 -1.569001 0.195984 1.313288 -1.851430 1.434060 5.546011 1.009001 -4.247673 0.021391
觉得 7.489244 6.079308 -2.422081 -5.102006 -1.229201 0.623298 -0.879247 4.186595 0.181206 2.811250 -2.039178 -0.824673 -1.089232 6.827296 2.525798 4.829363 3.643873 -0.513700 3.049633 5.545419 1.561360 -0.767192 15.141285 4.554678 -4.454672 6.953213 1.513874 5.593035 1.015808 5.185308 4.163565 -1.992019 -4.580058 4.825076 -1.172622 2.159776 -1.087673 8.212773 4.797565 10.008913 5.026803 -9.133204 -6.482118 -2.224933 1.062406 -3.057742 -1.695934 -3.111369 5.016120 -5.767015 4.791070 -0.438549 -2.072864 3.443868 3.776384 -0.554767 4.612631 4.990826 -2.840251 4.790305 0.109416 -4.217007 10.634048 7.486493
开始 -0.958917 -1.303385 5.332238 -1.238156 1.066849 11.457500 -2.432727 -0.654672 -1.571296 -8.788561 -3.938503 2.280105 3.106334 -3.433108 -0.705609 8.918860 -3.201065 -6.047710 12.656472 -2.617682 -2.380313 1.984900 2.216468 -5.196992 -0.454093 0.512554 3.837106 5.842682 1.423100 0.861364 1.745763 -4.096108 -1.452229 1.279579 1.039282 2.259940 0.466882 12.409134 -5.245672 0.525274 -1.588605 9.165712 3.568009 4.596439 -2.094790 1.117142 9.788778 5.120679 -4.568454 -3.389832 -4.652139 -5.356208 1.133419 1.350864 0.596093 6.497364 -4.336815 9.138361 5.155493 -4.332075 -1.646018 -3.819368 -7.533950 9.648811
时 1.644268 -2.055332 7.303073 0.182990 0.200071 2.848285 -8.592731 5.276808 -4.128334 -5.301169 -5.626875 1.079780 5.480326 -5.086702 -2.326710 4.916329 -1.966129 -5.793068 6.919820 4.705689 -6.069936 -1.327128 1.069800 -2.168171 1.946175 -2.284095 3.256053 15.714558 -3.608929 -2.398502 0.194212 -5.257144 2.356698 -1.731141 4.513853 4.521456 -0.554040 -0.087837 -2.808431 4.127834 1.658193 10.027186 1.694084 11.449255 4.189358 2.179242 -0.374662 4.137459 -2.383049 0.989776 0.200536 0.900390 5.241002 7.343619 3.483386 1.481140 1.135937 2.575418 -2.128375 0.703316 -2.450282 -5.380754 -7.156006 1.059195
大 0.394588 -2.930967 3.486096 -0.520900 6.804120 -0.284959 1.948471 -4.317941 -9.451691 2.847607 -5.314732 -3.155582 -5.889831 -9.013381 11.838612 -0.182708 0.991011 -7.080545 3.620107 -3.742572 2.237882 -7.702190 -3.429163 -7.918859 5.280352 -0.368436 2.992830 3.525125 -3.100720 4.277105 0.208786 -2.460614 -5.142013 -6.577089 6.359878 1.223858 -9.996479 -6.149441 -2.442015 -5.045206 -1.264435 3.779889 7.192364 -0.762806 -1.184590 -5.100928 -4.864598 -0.567963 -6.368371 -1.683583 3.484252 11.517027 -2.387415 -3.699356 1.596440 3.832175 0.660580 -1.135187 1.783171 5.335592 1.050490 3.974533 -5.277539 5.837654
一下 -3.406204 -2.633971 0.400217 11.674940 2.172048 14.083113 8.745296 4.225972 2.918906 -5.331942 -0.475615 5.886378 -5.975800 3.446287 -3.606805 4.300562 -5.640128 -5.692389 0.577226 1.713752 3.512467 1.459734 4.262477 7.804969 -0.261588 -0.001550 -0.804806 -0.765874 -9.371820 -3.367839 -0.156390 -5.452168 -10.122589 -4.342263 3.802324 -11.233315 -2.052201 16.208338 -0.976685 4.607507 -0.867802 8.122050 2.681841 3.791489 3.817173 6.129488 2.997189 3.187783 1.577236 -13.092157 3.876160 4.405863 0.755038 -1.730116 1.077700 4.819946 1.686663 -7.462370 0.910304 -0.900099 3.278918 2.530730 -11.210629 9.298319
多 -7.109128 5.133909 2.895344 -8.641623 -1.454071 -0.223534 -1.690780 -1.625297 -0.230164 6.194027 -7.390812 -0.565860 -9.219051 0.471518 7.916461 -0.603295 3.924178 -3.977304 5.862953 -1.798269 2.203054 -5.135144 7.551653 0.060564 -3.222849 4.330345 -0.661433 1.209761 -0.332909 5.359017 0.126389 1.453815 -9.547400 -1.519747 13.824812 -0.290886 -4.016785 2.497360 -4.538980 -0.174347 -1.265720 -0.841291 -1.875293 -2.747355 -3.112597 -4.274272 5.240678 -0.526521 -2.957304 -0.008426 -1.706502 -0.349168 -1.550555 -2.942579 -3.394286 7.307467 -7.632199 -5.802345 -3.150437 -3.308312 5.236449 -3.207846 2.806953 3.138846
只 7.098093 1.012824 8.169031 -0.946803 -0.042382 4.826932 -1.694516 1.407796 1.738355 2.732317 -4.486985 -0.670408 -8.312676 -0.571702 9.783456 -2.460852 -5.686312 5.164866 2.921952 -4.241245 -6.867759 -6.265411 0.835075 3.162119 5.521273 -0.097696 -0.658813 5.378257 -4.094769 -3.752318 -5.446141 -0.403577 -2.567327 1.570863 1.846264 -5.140995 -5.637457 -1.909968 -6.027350 2.200493 -0.655654 8.720149 -2.632582 0.874778 4.222156 -3.089469 -0.589850 4.593537 4.205644 6.741234 -3.948149 3.094590 4.012731 -0.534616 1.911843 -2.269356 -1.041869 -14.808903 3.714607 -12.188070 -5.617013 -2.516669 -0.687100 -0.044206
笑 3.178429 3.110159 -12.781432 -0.791162 -2.967184 1.530155 0.796749 7.135095 -0.535526 6.322954 8.683582 2.230041 -4.959745 -1.991736 6.155375 -6.335630 6.227252 0.495744 -8.411297 -2.397227 -4.066176 1.177044 -3.468056 0.442889 -7.548584 2.171932 -7.461108 -3.302579 10.126879 -0.299482 2.635548 -0.379530 3.124035 -3.010514 5.266052 -8.594591 4.026801 4.335878 -6.953693 2.452863 4.202888 -5.829137 -14.047847 -6.476934 0.479239 8.248897 3.588763 3.929475 -0.627627 5.052739 3.305475 -8.773742 -4.531631 -14.512794 5.848114 -1.319214 0.448217 -1.734701 5.394179 9.307311 1.475854 4.979604 1.651864 -5.064214
然后 2.664198 0.421674 6.495389 2.965855 -6.587497 11.165971 11.757726 2.623133 -6.525864 -8.368952 -0.704267 0.387643 1.937959 -1.426253 -4.645271 4.006327 -3.392984 -2.614177 -2.600079 0.038097 -3.420635 2.851277 -8.119706 1.374614 2.602772 -2.736954 -2.068739 4.460564 -4.879903 -3.257135 -0.715518 2.306376 1.085867 -4.437238 7.124468 -1.300910 4.158237 3.785691 -6.503841 1.110433 6.937230 6.601640 2.692365 6.810554 2.295031 5.602828 0.990158 11.268446 -3.421291 3.273518 -4.715989 3.198632 4.935450 0.874725 4.315809 2.931847 -2.640031 1.251855 10.056970 1.440754 -1.419767 0.834649 -15.642126 9.050495
那么 3.595409 6.704749 1.494224 -11.720414 -0.935610 -5.059227 -2.235168 9.084148 -3.376622 4.883609 -2.123774 2.399683 -0.086375 4.922014 -0.923470 0.894031 -5.397600 7.539189 5.132232 7.334553 0.333819 1.493912 8.395413 -0.950689 3.397247 0.951064 -3.431937 1.933310 1.978316 3.046949 -0.139886 6.397186 -1.364781 -10.561948 -1.671254 -3.398937 -0.925086 11.138200 1.712381 7.372998 2.063523 -4.831334 -6.420033 0.736549 -2.093588 -10.952616 3.833744 -3.260897 -2.735739 3.239166 6.082072 -10.567039 5.171750 -3.838499 -4.459038 6.872777 -5.124374 -1.416304 -9.018697 -2.947630 7.603055 -6.431794 -1.374242 -0.481090
用 2.855486 3.335902 5.970978 6.029204 -7.164917 -1.747988 7.362056 -5.175225 -0.569011 -3.403766 4.143655 -2.299594 0.115844 3.461149 -3.109113 -9.306695 -6.759318 -7.764192 6.515931 8.639725 -0.522362 -3.810179 2.971901 -2.546381 6.562709 1.059410 1.690426 1.797354 -7.333185 -3.327646 -2.189626 -4.223097 -2.281956 -3.043567 0.519617 -0.086044 2.735752 -3.320228 2.358459 -4.751367 -1.856196 0.276116 -1.326097 0.756350 0.605155 0.730714 -4.846251 6.289390 -4.192957 -2.806495 -2.313104 3.087079 2.588465 -5.009851 -2.777877 1.590142 0.168009 2.404974 -4.200890 -4.041418 3.054088 -1.463434 -2.842871 6.161933
向 4.547388 -9.213319 -3.243624 6.983213 2.082006 10.154703 6.430610 -4.834360 -2.285662 4.857523 -2.831227 -0.414497 -0.282235 1.143342 -2.566647 7.299021 -4.050393 -2.826283 2.587100 -0.147253 2.846469 -3.622879 -8.073611 7.073188 4.590785 -7.035264 7.034396 6.454174 -12.612049 3.361960 -3.210104 -7.782768 -0.109876 1.608661 2.945800 -4.711828 4.660460 -2.869750 -1.110075 -7.313334 -3.329809 1.025877 -0.861979 4.259396 4.260439 6.764780 -0.751453 6.458829 5.714768 6.293724 0.212515 3.233325 2.148077 10.437605 1.052075 7.315178 3.435710 5.613809 -1.442063 1.197181 -1.194063 5.052299 -18.917198 5.706420
一样 11.064380 3.843325 -1.196309 3.458726 1.438132 0.226903 0.090515 6.140685 -7.215749 1.099265 2.117254 -4.683576 3.144311 -2.988908 4.817830 -2.136352 -12.401914 7.657627 7.022999 6.393932 -2.604807 2.718122 7.806671 -7.999804 -2.581394 -10.095394 4.188757 -4.266338 7.126231 3.405310 -1.042476 -3.076963 -3.960981 0.158006 -0.805540 -0.883374 -1.287283 2.749275 3.448545 -1.863489 4.486637 1.182700 1.600962 -1.324088 -2.392508 -6.744794 5.145928 -1.674418 -0.975657 -0.245756 -3.582497 4.132294 8.232703 3.524863 -4.595737 11.188042 -5.374610 -1.961480 -3.752834 3.476348 4.263621 5.035829 0.222676 -0.747818
时间 -3.992915 -4.987074 7.424110 -0.571211 -2.146392 9.443470 -8.927649 -2.049771 -4.024949 3.769261 -9.416402 -8.647694 -4.765508 3.898370 -2.085925 4.071002 -0.109023 1.367559 3.416476 -1.561189 -0.208385 -3.831671 7.973968 3.107640 -1.035614 7.375160 -4.782896 9.290439 -1.667312 -5.888731 -13.797196 4.506080 -11.729032 -8.568274 3.766225 0.485435 -5.931168 -4.415712 -10.798229 11.913755 -2.057882 -0.013927 -3.055204 7.464344 -4.230811 4.441734 13.146747 -0.015358 -8.570016 0.859612 -9.712509 -4.472870 -0.176094 -3.637018 -12.608990 9.544344 -0.567881 3.226017 8.485979 1.768995 -0.494820 -15.185669 1.855523 8.973710
真的 6.224250 6.788240 1.798199 -10.820448 6.787564 -7.038627 1.527315 6.237050 -6.885479 4.439004 -4.253333 0.539370 3.091579 1.442350 3.816907 1.075847 -1.290121 3.827008 -1.183281 2.741557 -2.902011 -2.502922 8.583656 2.606330 3.341540 10.395516 1.570984 -0.428804 3.275138 -4.020661 0.000477 -3.272592 -4.454772 -2.324936 -0.587467 -3.018895 -1.997400 5.136294 3.531124 0.161893 3.872277 0.839954 -2.939959 0.706895 4.536638 -1.925175 -0.236178 -1.659462 -7.148563 -3.258374 1.272895 -2.351947 -0.690591 -3.469732 -3.482327 -1.571167 4.380889 -2.752053 -1.265308 3.096036 1.217382 0.465910 1.044456 0.937129
小 5.940035 -0.202729 -4.327385 0.453605 4.220047 4.057795 5.756499 -5.849468 -5.651778 -2.815212 -2.416771 -0.722061 -2.985103 -3.380888 6.219116 -3.174491 0.242148 -8.805158 5.021103 -0.450568 1.174676 -4.678243 -5.380833 -7.748172 1.556501 -4.654060 1.374408 7.147882 -5.376302 2.014641 -3.850249 1.749348 -3.122808 -8.413766 6.497221 0.589874 -6.439536 0.312591 -4.285410 1.348048 -0.593346 -1.109352 2.160230 -3.357422 -3.511522 -3.738978 1.111211 5.726904 -8.319590 0.582734 2.126412 6.739923 2.625010 -4.523508 3.994622 0.069114 -1.400460 -10.042614 1.420359 1.620073 -4.456643 3.996497 -5.661720 1.285433
东西 1.423762 0.092476 8.048362 3.380517 -2.740874 1.243006 10.213163 -3.245323 -6.582743 4.174865 1.689705 -4.407585 -1.779668 4.128725 4.904009 -5.707287 4.989358 9.908221 10.775656 4.609637 1.315091 -4.386713 2.106197 8.549285 -2.014123 7.481837 -0.820016 0.062557 -1.957194 -6.864169 -4.009548 5.575530 -6.314554 1.022254 2.045563 1.948658 -1.067929 2.351434 -5.050638 1.355238 -1.463634 8.989305 -16.018677 -3.610806 8.277949 -3.687052 8.131552 -0.246134 -3.776580 3.288170 -4.314374 8.078102 6.115339 3.517753 3.704440 1.560943 4.480864 1.254022 -1.271351 3.514262 -0.198017 -6.734123 4.326562 6.194296
出现 -0.545166 -8.193610 3.971895 -7.369688 7.625450 7.293154 -11.063968 -5.805783 -2.008285 5.968709 -5.755262 -4.603773 -4.174522 1.221752 6.767493 1.807325 2.391626 -1.723665 12.070189 6.101300 3.403090 2.539647 -7.230482 -1.964503 -2.960566 -0.727392 8.418030 -1.950101 7.982527 3.806722 4.413067 3.723121 -0.723779 0.306554 -5.043489 6.401681 -5.572144 0.181601 6.361432 2.164976 6.374073 -3.088825 7.911393 -1.795261 -9.802716 1.329829 -10.879238 0.401472 -6.064455 -6.623961 4.383970 -6.749251 3.508621 5.628150 -1.403252 -4.299230 -5.786847 8.694942 -8.927221 -6.483419 3.131251 -8.984871 0.755156 3.703696
不能 10.604805 7.694348 14.797349 -2.314172 3.538824 -4.263312 1.393295 8.211965 2.172396 -4.550421 -4.154401 -12.427811 -1.230811 -0.652826 -3.268950 1.189174 -6.562587 1.431220 -5.243817 -0.339464 -8.045122 -2.649518 3.509181 12.030573 4.907589 13.616541 -7.490648 5.241004 -7.054561 9.579474 2.545822 7.017471 -7.790292 5.894164 -2.914381 -1.003390 0.172545 0.265042 1.546393 2.854380 -11.702374 -0.197045 1.429884 10.574514 -0.628534 -3.790958 9.547526 -4.818491 0.144350 2.920673 -0.616740 6.388628 0.861572 -8.919385 0.300050 2.945797 -4.516220 5.386364 5.885217 2.653761 -2.523673 4.525149 -2.302487 -4.402842
最 0.434961 -2.308163 -5.067267 -17.201561 1.446405 -11.433363 -1.475301 8.120908 5.622386 6.433519 10.328125 -1.015102 -3.408626 8.676682 -7.164715 6.540958 -10.648870 0.556092 11.597784 -0.329125 -1.125363 2.094986 -1.527648 -7.238922 5.472820 1.190782 5.298739 3.298991 4.487446 0.770425 -0.345884 3.037495 1.788584 -6.569941 -1.801855 -1.088652 2.101053 7.932922 1.492048 4.121490 -7.556071 -1.067093 -15.298911 7.016378 1.099736 -19.277855 -1.589267 -0.412824 0.952091 7.952698 -1.184443 -0.562808 6.200003 4.551735 5.524200 2.948122 -8.206227 -7.587334 -2.304954 -4.292467 0.234988 -6.761903 5.482746 3.782940
这种 3.465753 4.991116 9.333564 -11.736828 8.512036 -7.047171 -0.462407 7.618639 1.883261 -4.905948 8.291847 -14.314212 -2.451598 4.769421 -2.538133 -1.561294 -5.213797 0.594042 -0.204252 3.835792 3.297413 1.700789 16.790783 -11.627865 4.493766 -5.017989 1.897746 -0.038287 4.198772 10.036134 2.737934 -4.190700 -1.630021 -0.687864 3.030381 2.507818 -2.328186 12.361383 1.283113 -6.112502 5.115614 2.821701 -1.387615 9.282763 -1.915761 -6.294764 -1.432467 -3.523652 -4.611784 -3.839709 8.894515 -2.643901 5.693318 -2.451147 -1.990974 1.774335 -5.727117 -4.723205 -0.561425 -3.326247 12.486081 -1.419258 0.752473 -0.167978
感觉 2.274952 12.659739 1.281948 -1.055873 -8.282469 2.437158 -6.236392 6.103613 -2.031306 1.087493 2.379609 -9.500075 5.132303 -2.269529 4.409044 3.473917 8.256381 7.187183 7.321283 5.112197 -4.832140 -4.485540 15.158055 1.273862 -9.106219 0.201951 -2.282524 1.852392 5.367859 -4.228829 2.740869 -8.839643 1.953465 -3.110550 -10.619369 1.059410 3.691504 2.869528 -2.866291 13.122158 3.159506 -2.655516 -3.236196 -0.953248 6.294024 -5.128730 -5.046840 0.098543 1.666489 -7.478204 -6.596515 2.040868 6.467211 7.127053 2.730926 -2.201738 10.638337 9.332738 -1.750753 5.219551 5.112081 -8.577848 15.400539 3.324814
一些 -2.998591 -2.057782 2.140142 -5.975432 -1.927233 -0.545802 -1.767918 2.286332 6.130836 -4.413704 3.703051 -5.142528 -7.927780 8.943586 -2.548873 -3.553279 -0.572174 -5.520319 4.459046 4.642733 4.224790 -2.208189 7.306118 -4.605525 -7.940528 -2.355658 1.130722 0.468297 4.098439 5.114999 1.413687 3.998461 -9.468668 -1.320400 13.120138 -6.971717 -4.269037 15.025226 -6.076344 -5.002489 -2.950837 5.055821 -2.084445 13.257250 3.882535 -8.132989 5.144082 -4.734891 0.567985 -3.029440 -0.103865 6.583981 6.491591 2.837149 -5.786239 6.215135 -6.964734 -4.642403 -2.053419 -0.262149 6.756834 -7.611981 -1.831016 -3.465806
中国 -1.160801 -5.425222 -1.893734 -7.366565 3.869944 -1.242255 -1.945847 2.688373 0.527112 -0.517554 6.687769 -3.098114 -0.649496 4.077185 1.270371 4.062229 -5.376430 -7.151006 4.485217 -3.370073 -2.861845 -2.666677 6.182140 -2.744160 -4.529527 4.696380 -3.032676 -3.229000 1.607326 -2.444666 -6.926023 -0.009087 2.635337 -3.224878 -2.394561 7.708780 -4.466722 3.609863 4.010489 -6.849464 -0.192466 5.070500 1.860258 5.357210 1.552752 -2.987103 4.849019 -0.502438 -2.784825 2.094501 -2.498361 1.001411 3.619955 -2.176720 -0.145893 3.705370 0.709732 3.903603 6.655541 5.347247 11.319544 1.966655 1.034221 5.781583
谁 -0.378831 3.925631 4.220808 -9.885780 8.197866 -9.542206 6.447536 4.742917 -3.700665 7.697261 -3.932037 -5.751806 -0.303710 -4.906621 0.006745 0.887179 -2.773479 2.610565 -0.779220 4.884608 -0.048737 -7.021858 -2.504070 3.679558 -4.928168 9.047640 -5.932442 0.016952 -3.440562 -1.960035 5.490030 1.381036 -6.358424 -4.479978 2.664188 -5.041212 5.620467 1.308662 6.687406 -5.821472 3.275170 15.396919 -1.678248 -4.543813 3.143111 -0.742963 6.692675 0.900575 0.093405 -4.537521 1.856313 -7.083260 -1.588217 3.235035 -4.039171 2.618932 -2.272680 -10.959718 1.551956 -1.285735 3.045634 5.476919 5.673197 1.371557
一声 -3.374297 0.945005 -6.089366 9.690101 6.808071 8.605984 8.197158 -0.020603 8.343578 -3.870359 -1.954449 3.432739 1.083397 -11.678702 7.709692 11.905905 3.226356 -1.047083 2.470596 15.285327 -1.972445 10.418285 1.683766 4.363139 3.038419 0.813586 -18.784828 -5.669454 -6.555395 0.495225 -3.069659 -8.962197 -3.893688 -1.863381 -6.492890 -15.513524 -5.361040 7.678323 -2.476083 -1.601633 0.087980 10.658645 3.392803 -1.102457 7.077515 9.160600 3.340496 1.807531 5.863336 -0.450054 0.833582 3.394231 -1.177416 -1.680296 5.920352 -4.348259 2.151685 -11.002625 9.569978 -6.764409 -4.715754 6.255154 -6.277215 1.065222
一直 1.026424 -0.019432 3.808913 2.084423 11.473380 -0.954334 -7.825340 7.778475 2.968548 4.531820 0.352229 0.481246 3.155464 -1.153874 -5.587492 0.004781 -2.173197 -4.094965 1.508152 3.621264 -6.294066 -5.958749 4.726161 -0.148740 -0.545425 -3.660263 9.084941 4.868723 -1.550967 -4.288568 -5.079447 -2.651407 -2.060931 -4.158209 -0.687762 -3.669349 -4.106711 4.964467 -4.282994 0.844747 -0.565228 11.424860 -0.547993 1.727215 -4.259404 -5.512004 7.634148 2.641712 -1.931593 -1.949309 -3.250269 -2.502011 -5.913776 0.420930 -7.537585 3.716972 -2.353532 -3.637086 4.980503 2.267641 -3.281314 -2.065005 4.757480 0.598838
听 -0.686880 -3.807224 -10.799067 7.747425 -4.153884 -9.768126 -1.201974 -1.759121 3.362596 2.104648 -5.772000 1.393692 4.132394 2.352309 6.751883 -1.662766 2.613719 -5.868819 5.396241 10.295654 -8.207510 0.714544 4.211665 -3.702114 -5.931218 5.402390 -3.676562 -3.249344 -4.413903 -1.956691 10.696030 -11.012208 -0.073477 2.062363 5.600725 -7.251861 -3.627253 -5.144371 -5.276044 10.557342 4.714589 -5.091574 -4.916399 -3.312207 2.934180 0.269826 -2.325867 0.425933 6.536517 -0.533711 -5.658692 -9.855389 2.230309 -4.692482 -6.588188 -5.561627 4.842987 2.784954 12.971510 -0.072176 6.072024 6.007042 14.598637 -4.028939
直接 0.126801 2.868496 12.175995 2.864843 -1.771908 6.005277 10.074203 2.927360 -8.355167 0.272545 -3.332537 -1.470268 3.398365 -4.293578 3.139259 4.182367 -3.772049 1.013345 -0.882336 -0.102400 0.125358 0.231531 -4.461328 -3.228140 7.866867 0.115360 -7.025412 -1.184505 -6.179456 1.231601 1.797229 -3.831976 -3.345008 -3.930542 2.972521 0.022270 -1.690477 4.961565 -3.405084 -0.251655 0.954847 10.912137 0.483464 10.883550 4.984990 1.779882 -3.033129 9.953935 -1.960148 7.358084 -3.249058 7.569180 8.462111 2.010422 -9.890903 5.663469 2.005347 0.068233 5.775791 1.470714 1.159029 0.171170 -9.480889 -3.840970
突然 -2.857235 7.698089 2.552101 -2.740458 -1.559352 10.931909 -0.947294 1.967199 -3.166274 7.122765 -6.859694 0.834930 -0.041565 -2.035493 8.878425 6.667062 1.060971 3.142305 0.312150 -3.308377 -9.784671 2.930283 -3.323751 3.431221 9.524598 -2.684390 1.560325 6.732743 3.552805 -3.082412 2.901505 -10.964000 2.223992 -7.059912 2.085981 -2.858947 -5.575887 2.267958 -8.823144 2.823337 9.985243 12.061286 1.829273 -0.056463 3.356719 1.605325 -5.178733 1.240682 -6.013392 -2.266261 5.194927 0.769075 5.122009 7.531379 6.238572 2.002199 -0.708633 4.055373 9.765254 3.040426 -5.965822 -0.802800 -5.021121 -4.858930
而且 8.378723 -1.487980 5.891369 -10.157929 0.110018 -2.196680 -4.539185 5.366474 0.023095 -1.664324 -7.310407 -5.104787 0.870059 -0.792825 -1.528765 0.943147 -2.218199 -3.756090 6.297367 2.818568 -0.681242 -6.851197 4.324439 -7.438777 -2.204178 6.006351 0.105870 5.952460 0.753647 -0.123075 2.427176 6.375968 -6.955520 0.154947 1.477438 7.296159 2.328444 2.775242 0.515264 -2.310152 0.010568 -1.091735 -0.237908 2.650520 2.956393 -7.826248 -0.734731 -0.774826 -6.965869 1.628567 1.005077 2.610973 -1.972247 -2.001364 -4.293923 3.563335 0.478041 0.408417 -5.534443 4.347631 2.341336 -4.034018 -1.997677 2.053577
声音 1.569239 2.668271 -13.081235 -1.137476 1.686532 12.116673 -1.973845 3.739868 10.732154 -1.482029 -10.600569 -8.587678 -0.437731 2.636036 7.154388 7.273501 11.513688 9.321152 5.184370 13.772356 -14.174666 -2.792179 2.594460 -1.761586 -2.617057 -2.292174 -15.942943 -2.890232 -4.761069 -7.779278 -0.243636 -2.280095 -5.431840 -10.108884 -3.530448 -11.472144 -0.785240 -6.282475 -9.630705 9.030819 2.469757 9.466273 -9.325135 -5.150980 7.276465 1.688851 6.746985 6.799081 3.888757 0.918952 -0.672081 -0.033751 2.422414 2.065351 10.511684 -3.187617 5.041359 4.703310 0.164848 5.939125 -3.528289 1.639211 2.509160 -2.468557
日 5.309376 -6.444407 -1.108205 -4.026407 -2.297641 -1.324484 -7.252520 1.433225 -0.521532 6.285170 3.633710 -6.204306 3.521574 -3.753381 2.753324 1.239471 0.303974 -3.487834 5.703974 -5.936473 5.601235 -4.152750 2.448244 -3.890141 2.347293 5.210610 -4.379521 7.339835 -0.430616 -1.049300 -6.991661 -2.148404 -3.958679 0.410671 4.252551 3.884174 -5.765203 -2.036200 1.758989 0.889292 1.745825 -2.662563 9.524919 7.221966 -2.912739 6.508115 8.871466 -8.378492 5.081511 -4.014411 -7.220639 -3.736495 -4.882689 1.653030 -1.544968 2.198837 -2.621092 1.620083 4.045500 0.407516 -3.119613 1.140515 -6.540084 4.278261
问题 -3.132921 -2.838555 -1.241642 5.706297 5.740433 -2.041607 2.782018 -1.050360 -1.874136 4.607586 -4.771536 -7.182799 3.207783 8.188141 6.921075 3.419499 -2.029042 -1.299886 -1.680193 -2.035372 -2.427912 -0.335439 4.582719 1.763256 -1.592209 18.109667 0.851282 3.749348 -9.051240 -2.845760 2.469395 4.545147 -4.948978 -7.276326 -3.164756 0.555443 -7.699690 7.035937 1.167486 2.501365 -2.464228 3.747941 -10.294961 -2.833564 5.057850 -3.669943 9.019747 1.205351 -3.092870 -4.332673 -4.704422 -3.992361 6.452737 -1.911509 -5.474053 -2.050809 -1.218635 5.218547 1.473661 1.081481 5.394557 -17.206099 -0.688917 -0.946735
它 4.190887 6.100973 6.834395 -2.907494 2.291994 3.202633 8.322040 3.596835 -3.745423 -3.267779 3.918977 -8.873994 -6.789711 -2.005402 2.059817 -5.875470 -0.274466 7.384595 7.137058 6.199276 0.740391 2.055254 1.594666 3.363550 -0.137785 -3.154104 0.526516 0.207383 -2.340412 -3.185685 -2.224811 -0.306161 -5.244030 -6.830707 -8.118805 -0.446240 -4.095534 7.924357 -5.677375 -2.778833 -1.877481 4.881642 2.835103 8.543509 2.249077 -1.329905 1.014387 4.113450 -8.155593 4.706430 -1.069225 -0.227086 3.142407 -4.158032 0.656184 3.053050 0.522775 -2.882400 -2.009870 -0.383423 1.752130 -0.709590 0.634604 6.703419
过来 2.275005 -3.978952 -6.786907 4.036927 6.296830 12.532796 6.980202 -4.795858 -4.385891 -4.083410 -4.028927 3.512821 -0.968516 -0.908308 0.251441 6.735852 -3.501271 9.549360 10.287068 -6.603050 15.006246 -5.866817 -7.765844 4.556111 -4.716452 -6.854172 -1.708917 6.162117 -1.536044 1.798894 -2.824965 -7.026934 -5.041347 -0.864323 6.141089 -3.196504 12.776453 6.051557 -5.051040 7.263470 -0.203806 2.867029 -2.106563 -1.601072 1.419513 9.443352 3.421463 1.911965 1.390843 1.086497 7.065209 6.231939 -2.332274 -4.543450 -1.434707 14.383751 -8.160539 1.893406 3.230259 -2.947449 5.031064 7.036432 -11.503203 1.449936
发现 -0.439836 -7.853234 0.601157 3.340055 0.929265 3.393972 -8.458369 -7.778975 -0.527475 1.113432 -4.422888 -0.394683 2.505641 5.548899 -0.122725 2.553109 2.193783 3.942591 15.773495 1.978119 3.442034 -3.911095 -0.745982 2.961890 -6.656469 0.684111 11.242031 2.544840 2.152093 0.832539 1.912885 2.154828 -3.631791 1.901762 -3.275445 3.608318 1.748009 7.142464 3.642968 6.292913 0.156533 0.021199 5.403580 -2.060040 0.876787 0.862084 -9.615396 -1.306261 -3.276684 -6.397051 9.404613 -1.856135 4.717652 5.406554 -3.891132 -3.386728 -0.377553 5.821560 0.013161 -0.454574 -2.012952 -9.186932 1.290177 -0.598128
那些 0.251587 0.005246 8.160925 -9.838781 5.003360 -5.749291 3.859671 -4.194737 -2.227166 -5.645329 7.306221 -7.971808 -8.164194 2.855943 -2.166485 -0.155679 -2.794916 0.573624 7.312347 9.450758 -2.879813 -0.073875 3.148891 -6.639163 -5.473965 -9.060341 0.792282 -1.287318 5.785758 6.012241 -2.525370 -2.629984 -2.402295 4.159361 7.005667 -1.769761 -5.455856 3.574896 -3.067499 -10.376517 1.152437 4.533821 1.582876 8.825848 -2.786268 -5.354680 4.413983 0.316417 1.764986 -1.932760 5.693529 3.997059 4.429337 6.024002 -9.141217 8.905982 -5.662301 -7.317557 2.995007 -2.083076 6.299719 -0.097638 -3.731714 -5.207444
于 5.537880 2.991267 1.770967 -5.078447 3.441221 -0.642739 -5.229002 2.331537 3.630566 4.488809 1.136341 0.060631 0.079725 6.591325 0.578446 2.052432 0.249833 -5.225311 0.094181 2.638931 -4.841013 -0.735663 0.059813 0.009387 6.920065 -1.491075 4.811667 6.534349 -9.087590 8.455473 -9.615742 -1.278836 -5.432325 4.558308 -5.653985 6.217772 -5.405254 -0.301585 8.234189 -2.295530 -2.457737 5.401708 -7.193396 9.622543 -0.324198 -1.209304 0.638332 -3.244017 2.479638 -0.341771 -0.283491 7.084293 -4.679831 17.132732 -4.377051 1.542721 3.279856 1.572062 -6.016745 -7.430339 0.987702 0.247908 0.334024 6.370583
身上 5.096284 4.328745 13.673666 0.096370 1.319126 4.217872 -1.762966 4.121555 -4.903926 -10.022085 -4.769348 -10.437063 -4.296860 -5.359554 -0.934888 0.669011 -1.913031 6.452225 9.726309 -0.822748 8.035707 -4.863617 10.535551 0.087816 -0.789038 -15.283996 -9.920295 -0.803780 0.093095 -12.048298 -1.624225 5.389219 7.676606 -5.761664 2.919638 3.093163 6.232237 5.289071 -4.902999 -2.142304 -8.123899 2.088849 -6.120492 1.492067 -3.147282 4.487087 -5.168580 3.771408 2.823781 -3.064339 -3.318812 11.358848 -3.274451 5.022824 6.621234 -1.390577 2.412798 -0.737838 10.717299 2.228262 6.557654 -7.384975 -1.030203 -7.753637
更 -1.494068 10.247018 1.005013 -14.575782 -2.027411 0.853224 -0.105472 9.353122 0.959202 7.285498 -2.424763 1.649016 -3.629343 5.568168 4.762874 2.051585 -3.773906 2.968144 8.779098 0.132343 1.586083 -1.711591 6.067588 -6.170899 -1.129079 0.633760 0.932953 -1.962456 -3.784830 1.139790 1.032365 -4.550127 -2.354498 -6.426922 3.262137 -4.606775 -1.735791 7.928190 1.545990 3.658357 -2.507844 0.900037 -8.900094 3.270741 0.162689 -14.717717 4.109223 -3.681079 -0.082346 5.814198 -5.470652 -8.243574 5.972533 3.311428 -2.655904 3.537792 0.679331 -8.763077 -7.707683 -6.214338 8.581013 -7.031878 0.601345 -5.405676
能够 4.712993 4.599018 13.872874 -0.402567 2.880995 -3.837173 -5.744655 7.208573 -1.232648 -7.662119 1.511774 -6.446304 5.133377 1.806566 -7.320468 -2.981545 -2.883298 7.575681 0.145640 0.770647 -12.712268 -4.672025 0.974653 2.333626 0.448031 12.342569 -7.274573 16.134655 -0.722931 2.004686 -0.910675 -0.239256 -6.806572 -1.928408 -12.948986 -4.661094 -3.359689 -0.365222 -1.823454 1.172839 -4.903978 -7.796903 7.441445 4.783449 -3.485152 -9.336553 3.124099 -0.255491 -8.125331 5.325813 -1.779391 6.828992 4.692418 0.324766 0.030284 1.859968 -5.302998 2.893788 6.606736 -3.114182 12.397113 -7.835153 -10.881870 2.130345
吃 -2.708877 1.953231 3.118237 2.923416 -9.833872 -1.481296 4.216973 -5.377878 -12.507428 1.508556 9.778856 2.606475 -3.732087 -1.401207 0.918908 -2.807785 7.119102 -5.153771 15.659431 -0.503903 11.297285 -1.455998 13.554313 0.387317 0.757784 5.818997 3.894412 -5.691225 -4.148519 -0.085315 -2.168750 2.454262 -1.209897 4.245714 5.119195 -2.440523 2.866339 -9.386852 -1.779352 3.255481 4.606371 -7.107732 -9.526299 -5.346204 -1.088527 1.893004 4.264435 -2.658183 0.936892 0.340292 -4.629565 -6.721507 2.770136 -13.134471 -5.065011 -3.534245 -9.754298 -3.532514 4.685688 7.353395 0.633261 5.432514 13.920769 3.200670
带 -2.639534 1.113709 0.011001 -6.538153 -11.517596 4.894361 -2.928248 -4.528334 -1.913705 7.671664 8.997987 0.765246 5.081353 -1.108997 -5.653875 -7.714377 3.901109 -6.111369 3.633989 8.344481 -7.591634 -6.243022 -5.498154 -3.881211 -5.695128 -6.819680 -3.014791 4.157639 4.768121 0.204755 3.003479 -2.195604 6.930837 3.050692 9.031743 -4.596062 6.865400 -6.342638 -3.684940 5.631413 3.685819 -13.962703 -1.816490 -1.724268 -0.641942 1.465940 -0.291420 4.631289 -4.209083 9.389713 -9.851537 1.375934 1.082048 -6.688782 -7.477841 -3.045255 0.157472 9.374722 2.207989 0.993789 0.965534 2.322788 0.776080 -12.517499
心里 -0.960409 6.628431 5.060375 -4.456960 6.196823 -3.037003 3.277198 -1.571689 0.072011 -6.155835 -8.456739 -2.083297 -3.832315 -3.939023 -1.248877 2.725181 3.629106 2.875987 -3.714629 0.069529 -2.352137 -0.586397 21.377569 2.937769 -9.724148 1.628910 -4.304567 3.607807 -3.519039 -3.519857 1.146402 -3.233290 6.080235 3.711756 1.510513 -5.899918 2.920246 9.963356 -7.309836 3.768871 4.433943 1.582733 -6.563772 -2.094932 -7.357746 -5.544999 0.943787 6.851715 6.618590 -3.376327 -3.285541 -5.968246 -9.118423 0.521451 14.086978 -7.603714 7.559443 3.053283 4.668336 5.476046 -1.166218 -6.419976 13.155009 -0.378262
找 -8.707488 -5.949958 1.446313 -5.097639 -6.661836 -6.111218 1.645621 -7.336002 -9.377949 7.772110 0.943094 -7.433487 1.482784 5.587133 -6.546612 -4.658698 -3.623023 -12.337295 0.968144 -0.615236 5.233811 -5.992614 6.467830 9.551093 -4.282771 6.047610 0.531727 -0.890136 -3.847464 -0.653977 4.781339 -4.081890 0.876040 1.485754 7.112741 -3.693714 2.776883 -2.563461 5.402132 5.774409 0.767318 -9.269770 1.005369 -4.671599 -4.807101 -1.810622 -1.943683 1.179050 -6.418108 -2.582552 1.178289 -0.880357 8.216339 0.171941 -12.822415 -5.490033 -2.224393 4.390244 6.772386 -0.953946 -3.259025 5.504534 2.434635 -7.178763
站 -4.457691 -2.274042 -4.219088 1.165357 -7.658135 -0.896809 -8.755363 1.241826 -4.168481 -1.150179 1.034516 -2.360302 -3.543537 -1.812176 2.620587 5.044386 2.115058 -8.120631 -4.245472 10.995044 -1.227221 -7.074718 -12.119948 6.018982 -2.605747 0.531781 8.765585 -4.605228 7.285690 4.329018 6.772566 1.749271 13.440279 0.175322 -1.374573 -3.288654 -3.012760 -13.977521 -1.836431 0.389042 1.211815 3.844769 -1.257550 -9.326847 -2.430346 -0.702625 -1.729150 9.671333 -1.850683 9.193124 -0.153900 -7.730626 -1.596097 -1.954752 -5.177912 -4.842975 1.306548 -3.631245 4.692476 9.008754 -8.784614 -5.273658 -0.385997 2.370588
比 6.404064 4.739630 -4.453412 -4.513609 -10.715852 -1.794446 -9.293097 2.210919 -3.882184 8.642195 -7.631095 3.460525 -5.834666 7.893158 -0.071978 3.051566 -0.698599 -4.247878 16.586378 -0.302273 -3.679503 -6.410354 6.222672 -5.865927 11.283364 6.178024 4.267964 4.078232 6.699643 6.951962 4.391703 3.927383 -4.191044 -1.446526 6.120683 1.497511 -4.145167 -6.136775 9.503506 1.571847 -12.732955 -12.320399 -2.355768 -2.431508 3.471823 -17.522434 -1.224508 -7.802195 -2.835033 1.274827 0.571642 0.922364 1.822409 2.686905 -1.201082 10.820191 -1.709319 -1.297846 -10.326705 6.660816 6.820527 -1.024327 2.421324 -3.364540
地方 -4.497419 -0.674762 1.356896 -2.132274 -0.761342 3.690895 -1.294283 5.075783 -5.969502 4.056293 -5.343607 -12.209904 -0.312412 -3.197923 2.691284 2.668476 1.763687 0.313953 7.879057 0.277623 -3.780455 -2.277810 6.844285 8.193867 -8.713945 4.406856 5.135580 -1.215822 -11.492419 -13.003104 -4.647639 8.740379 -0.873316 -4.581097 0.772867 2.067285 4.455629 0.496977 -2.321328 12.302888 -7.977829 10.272155 -4.354860 -2.182133 -1.520856 -7.164375 4.371507 1.975006 -3.185262 4.342137 0.029730 12.156096 8.952493 6.779972 -3.329450 -2.444513 5.997302 4.414412 2.133717 8.149043 1.939083 -7.806927 3.750055 5.796250
一般 8.668449 3.041720 1.616035 0.940121 -0.192473 -0.050696 -3.466106 3.181815 -4.540842 -1.399226 1.738142 -7.702708 -0.160473 -10.252449 2.632007 -1.643226 -7.441024 9.740808 1.927389 8.010266 -3.187405 3.001267 7.481438 -9.705945 -1.228235 -11.455523 2.537605 -5.552430 4.560150 2.371192 -0.357410 -7.208709 -5.389068 -0.690275 -0.279106 -1.900918 -2.676701 -0.306436 1.300586 -3.824508 6.561217 3.315912 0.815685 2.425522 -2.702165 -5.731874 -0.854271 -2.539772 -0.754922 -0.074099 -1.552399 6.107895 9.516600 2.820079 -1.965900 9.769537 -0.383939 -3.336695 -2.509121 1.717427 6.646543 2.903186 0.127976 -0.716074
只有 1.361109 -2.079495 6.274703 -7.126227 4.856368 1.795693 -8.218396 -1.309061 -2.581507 3.518220 -4.347168 0.767908 0.827097 4.551705 -2.780935 -1.402171 -3.861472 1.142352 3.782473 -2.817245 -10.523472 -1.552663 0.018283 -1.421683 5.088912 6.502846 2.807435 7.601915 -4.182930 6.774417 -1.091428 4.309644 -4.611865 -0.135590 -2.141485 -0.127131 -1.624835 -5.180306 5.974970 1.798621 -3.621788 -2.613873 2.047530 -4.336637 -3.483403 -6.012893 -4.450796 3.668104 -2.832355 4.540534 -3.388220 6.046483 -0.056700 0.186541 -6.454631 -3.184124 -7.533601 -0.050508 -0.344521 -6.013360 -0.518333 -6.276778 5.336004 3.142368
应该 0.437082 -2.022831 -1.130048 -11.445028 1.759699 -2.126754 0.184870 4.917510 -4.201220 3.369010 -5.027347 -4.309466 7.339133 3.176428 0.122468 1.349805 -4.914813 1.247568 3.261489 -2.484324 -3.596712 -2.313636 4.438138 -0.422059 2.661215 8.927547 6.570476 2.096819 0.044349 -2.089017 3.640936 1.125100 -5.690953 -3.717586 1.469723 -0.479546 -1.629495 3.508053 2.680583 -1.721581 2.005481 -3.982299 -1.937146 3.575676 5.097441 -0.923120 4.936263 -2.678794 -4.393253 -1.404409 -2.046782 4.624141 0.264217 -1.740627 -8.395542 -0.719054 -0.899111 -3.353452 4.146318 -0.548710 2.888601 -4.965725 -2.774727 4.818715
